{"learner":{"attributes":{"best_iteration":"1999","best_score":"0.01065935578889327"},"feature_names":["koi_period","koi_prad","koi_duration","koi_depth","koi_ror","koi_srho","koi_steff","koi_slogg","koi_srad","koi_smass","koi_insol","koi_teq","koi_impact","koi_model_snr","pl_orbper","pl_rade","pl_trandur","pl_trandep","st_rad","st_mass","st_teff","st_logg","pl_eqt","pl_insol","pl_trandurh","st_pmra","st_pmdec","pl_tranmid"],"feature_types":["float","float","float","float","float","float","float","float","float","float","float","float","float","float","float","float","float","float","float","float","float","float","float","float","float","float","float","float"],"gradient_booster":{"model":{"gbtree_model_param":{"num_parallel_tree":"1","num_trees":"2000"},"iteration_indptr":[0,1,2,3,4,5,6,7,8,9,10,11,12,13,14,15,16,17,18,19,20,21,22,23,24,25,26,27,28,29,30,31,32,33,34,35,36,37,38,39,40,41,42,43,44,45,46,47,48,49,50,51,52,53,54,55,56,57,58,59,60,61,62,63,64,65,66,67,68,69,70,71,72,73,74,75,76,77,78,79,80,81,82,83,84,85,86,87,88,89,90,91,92,93,94,95,96,97,98,99,100,101,102,103,104,105,106,107,108,109,110,111,112,113,114,115,116,117,118,119,120,121,122,123,124,125,126,127,128,129,130,131,132,133,134,135,136,137,138,139,140,141,142,143,144,145,146,147,148,149,150,151,152,153,154,155,156,157,158,159,160,161,162,163,164,165,166,167,168,169,170,171,172,173,174,175,176,177,178,179,180,181,182,183,184,185,186,187,188,189,190,191,192,193,194,195,196,197,198,199,200,201,202,203,204,205,206,207,208,209,210,211,212,213,214,215,216,217,218,219,220,221,222,223,224,225,226,227,228,229,230,231,232,233,234,235,236,237,238,239,240,241,242,243,244,245,246,247,248,249,250,251,252,253,254,255,256,257,258,259,260,261,262,263,264,265,266,267,268,269,270,271,272,273,274,275,276,277,278,279,280,281,282,283,284,285,286,287,288,289,290,291,292,293,294,295,296,297,298,299,300,301,302,303,304,305,306,307,308,309,310,311,312,313,314,315,316,317,318,319,320,321,322,323,324,325,326,327,328,329,330,331,332,333,334,335,336,337,338,339,340,341,342,343,344,345,346,347,348,349,350,351,352,353,354,355,356,357,358,359,360,361,362,363,364,365,366,367,368,369,370,371,372,373,374,375,376,377,378,379,380,381,382,383,384,385,386,387,388,389,390,391,392,393,394,395,396,397,398,399,400,401,402,403,404,405,406,407,408,409,410,411,412,413,414,415,416,417,418,419,420,421,422,423,424,425,426,427,428,429,430,431,432,433,434,435,436,437,438,439,440,441,442,443,444,445,446,447,448,449,450,451,452,453,454,455,456,457,458,459,460,461,462,463,464,465,466,467,468,469,470,471,472,473,474,475,476,477,478,479,480,481,482,483,484,485,486,487,488,489,490,491,492,493,494,495,496,497,498,499,500,501,502,503,504,505,506,507,508,509,510,511,512,513,514,515,516,517,518,519,520,521,522,523,524,525,526,527,528,529,530,531,532,533,534,535,536,537,538,539,540,541,542,543,544,545,546,547,548,549,550,551,552,553,554,555,556,557,558,559,560,561,562,563,564,565,566,567,568,569,570,571,572,573,574,575,576,577,578,579,580,581,582,583,584,585,586,587,588,589,590,591,592,593,594,595,596,597,598,599,600,601,602,603,604,605,606,607,608,609,610,611,612,613,614,615,616,617,618,619,620,621,622,623,624,625,626,627,628,629,630,631,632,633,634,635,636,637,638,639,640,641,642,643,644,645,646,647,648,649,650,651,652,653,654,655,656,657,658,659,660,661,662,663,664,665,666,667,668,669,670,671,672,673,674,675,676,677,678,679,680,681,682,683,684,685,686,687,688,689,690,691,692,693,694,695,696,697,698,699,700,701,702,703,704,705,706,707,708,709,710,711,712,713,714,715,716,717,718,719,720,721,722,723,724,725,726,727,728,729,730,731,732,733,734,735,736,737,738,739,740,741,742,743,744,745,746,747,748,749,750,751,752,753,754,755,756,757,758,759,760,761,762,763,764,765,766,767,768,769,770,771,772,773,774,775,776,777,778,779,780,781,782,783,784,785,786,787,788,789,790,791,792,793,794,795,796,797,798,799,800,801,802,803,804,805,806,807,808,809,810,811,812,813,814,815,816,817,818,819,820,821,822,823,824,825,826,827,828,829,830,831,832,833,834,835,836,837,838,839,840,841,842,843,844,845,846,847,848,849,850,851,852,853,854,855,856,857,858,859,860,861,862,863,864,865,866,867,868,869,870,871,872,873,874,875,876,877,878,879,880,881,882,883,884,885,886,887,888,889,890,891,892,893,894,895,896,897,898,899,900,901,902,903,904,905,906,907,908,909,910,911,912,913,914,915,916,917,918,919,920,921,922,923,924,925,926,927,928,929,930,931,932,933,934,935,936,937,938,939,940,941,942,943,944,945,946,947,948,949,950,951,952,953,954,955,956,957,958,959,960,961,962,963,964,965,966,967,968,969,970,971,972,973,974,975,976,977,978,979,980,981,982,983,984,985,986,987,988,989,990,991,992,993,994,995,996,997,998,999,1000,1001,1002,1003,1004,1005,1006,1007,1008,1009,1010,1011,1012,1013,1014,1015,1016,1017,1018,1019,1020,1021,1022,1023,1024,1025,1026,1027,1028,1029,1030,1031,1032,1033,1034,1035,1036,1037,1038,1039,1040,1041,1042,1043,1044,1045,1046,1047,1048,1049,1050,1051,1052,1053,1054,1055,1056,1057,1058,1059,1060,1061,1062,1063,1064,1065,1066,1067,1068,1069,1070,1071,1072,1073,1074,1075,1076,1077,1078,1079,1080,1081,1082,1083,1084,1085,1086,1087,1088,1089,1090,1091,1092,1093,1094,1095,1096,1097,1098,1099,1100,1101,1102,1103,1104,1105,1106,1107,1108,1109,1110,1111,1112,1113,1114,1115,1116,1117,1118,1119,1120,1121,1122,1123,1124,1125,1126,1127,1128,1129,1130,1131,1132,1133,1134,1135,1136,1137,1138,1139,1140,1141,1142,1143,1144,1145,1146,1147,1148,1149,1150,1151,1152,1153,1154,1155,1156,1157,1158,1159,1160,1161,1162,1163,1164,1165,1166,1167,1168,1169,1170,1171,1172,1173,1174,1175,1176,1177,1178,1179,1180,1181,1182,1183,1184,1185,1186,1187,1188,1189,1190,1191,1192,1193,1194,1195,1196,1197,1198,1199,1200,1201,1202,1203,1204,1205,1206,1207,1208,1209,1210,1211,1212,1213,1214,1215,1216,1217,1218,1219,1220,1221,1222,1223,1224,1225,1226,1227,1228,1229,1230,1231,1232,1233,1234,1235,1236,1237,1238,1239,1240,1241,1242,1243,1244,1245,1246,1247,1248,1249,1250,1251,1252,1253,1254,1255,1256,1257,1258,1259,1260,1261,1262,1263,1264,1265,1266,1267,1268,1269,1270,1271,1272,1273,1274,1275,1276,1277,1278,1279,1280,1281,1282,1283,1284,1285,1286,1287,1288,1289,1290,1291,1292,1293,1294,1295,1296,1297,1298,1299,1300,1301,1302,1303,1304,1305,1306,1307,1308,1309,1310,1311,1312,1313,1314,1315,1316,1317,1318,1319,1320,1321,1322,1323,1324,1325,1326,1327,1328,1329,1330,1331,1332,1333,1334,1335,1336,1337,1338,1339,1340,1341,1342,1343,1344,1345,1346,1347,1348,1349,1350,1351,1352,1353,1354,1355,1356,1357,1358,1359,1360,1361,1362,1363,1364,1365,1366,1367,1368,1369,1370,1371,1372,1373,1374,1375,1376,1377,1378,1379,1380,1381,1382,1383,1384,1385,1386,1387,1388,1389,1390,1391,1392,1393,1394,1395,1396,1397,1398,1399,1400,1401,1402,1403,1404,1405,1406,1407,1408,1409,1410,1411,1412,1413,1414,1415,1416,1417,1418,1419,1420,1421,1422,1423,1424,1425,1426,1427,1428,1429,1430,1431,1432,1433,1434,1435,1436,1437,1438,1439,1440,1441,1442,1443,1444,1445,1446,1447,1448,1449,1450,1451,1452,1453,1454,1455,1456,1457,1458,1459,1460,1461,1462,1463,1464,1465,1466,1467,1468,1469,1470,1471,1472,1473,1474,1475,1476,1477,1478,1479,1480,1481,1482,1483,1484,1485,1486,1487,1488,1489,1490,1491,1492,1493,1494,1495,1496,1497,1498,1499,1500,1501,1502,1503,1504,1505,1506,1507,1508,1509,1510,1511,1512,1513,1514,1515,1516,1517,1518,1519,1520,1521,1522,1523,1524,1525,1526,1527,1528,1529,1530,1531,1532,1533,1534,1535,1536,1537,1538,1539,1540,1541,1542,1543,1544,1545,1546,1547,1548,1549,1550,1551,1552,1553,1554,1555,1556,1557,1558,1559,1560,1561,1562,1563,1564,1565,1566,1567,1568,1569,1570,1571,1572,1573,1574,1575,1576,1577,1578,1579,1580,1581,1582,1583,1584,1585,1586,1587,1588,1589,1590,1591,1592,1593,1594,1595,1596,1597,1598,1599,1600,1601,1602,1603,1604,1605,1606,1607,1608,1609,1610,1611,1612,1613,1614,1615,1616,1617,1618,1619,1620,1621,1622,1623,1624,1625,1626,1627,1628,1629,1630,1631,1632,1633,1634,1635,1636,1637,1638,1639,1640,1641,1642,1643,1644,1645,1646,1647,1648,1649,1650,1651,1652,1653,1654,1655,1656,1657,1658,1659,1660,1661,1662,1663,1664,1665,1666,1667,1668,1669,1670,1671,1672,1673,1674,1675,1676,1677,1678,1679,1680,1681,1682,1683,1684,1685,1686,1687,1688,1689,1690,1691,1692,1693,1694,1695,1696,1697,1698,1699,1700,1701,1702,1703,1704,1705,1706,1707,1708,1709,1710,1711,1712,1713,1714,1715,1716,1717,1718,1719,1720,1721,1722,1723,1724,1725,1726,1727,1728,1729,1730,1731,1732,1733,1734,1735,1736,1737,1738,1739,1740,1741,1742,1743,1744,1745,1746,1747,1748,1749,1750,1751,1752,1753,1754,1755,1756,1757,1758,1759,1760,1761,1762,1763,1764,1765,1766,1767,1768,1769,1770,1771,1772,1773,1774,1775,1776,1777,1778,1779,1780,1781,1782,1783,1784,1785,1786,1787,1788,1789,1790,1791,1792,1793,1794,1795,1796,1797,1798,1799,1800,1801,1802,1803,1804,1805,1806,1807,1808,1809,1810,1811,1812,1813,1814,1815,1816,1817,1818,1819,1820,1821,1822,1823,1824,1825,1826,1827,1828,1829,1830,1831,1832,1833,1834,1835,1836,1837,1838,1839,1840,1841,1842,1843,1844,1845,1846,1847,1848,1849,1850,1851,1852,1853,1854,1855,1856,1857,1858,1859,1860,1861,1862,1863,1864,1865,1866,1867,1868,1869,1870,1871,1872,1873,1874,1875,1876,1877,1878,1879,1880,1881,1882,1883,1884,1885,1886,1887,1888,1889,1890,1891,1892,1893,1894,1895,1896,1897,1898,1899,1900,1901,1902,1903,1904,1905,1906,1907,1908,1909,1910,1911,1912,1913,1914,1915,1916,1917,1918,1919,1920,1921,1922,1923,1924,1925,1926,1927,1928,1929,1930,1931,1932,1933,1934,1935,1936,1937,1938,1939,1940,1941,1942,1943,1944,1945,1946,1947,1948,1949,1950,1951,1952,1953,1954,1955,1956,1957,1958,1959,1960,1961,1962,1963,1964,1965,1966,1967,1968,1969,1970,1971,1972,1973,1974,1975,1976,1977,1978,1979,1980,1981,1982,1983,1984,1985,1986,1987,1988,1989,1990,1991,1992,1993,1994,1995,1996,1997,1998,1999,2000],"tree_info":[0,0,0,0,0,0,0,0,0,0,0,0,0,0,0,0,0,0,0,0,0,0,0,0,0,0,0,0,0,0,0,0,0,0,0,0,0,0,0,0,0,0,0,0,0,0,0,0,0,0,0,0,0,0,0,0,0,0,0,0,0,0,0,0,0,0,0,0,0,0,0,0,0,0,0,0,0,0,0,0,0,0,0,0,0,0,0,0,0,0,0,0,0,0,0,0,0,0,0,0,0,0,0,0,0,0,0,0,0,0,0,0,0,0,0,0,0,0,0,0,0,0,0,0,0,0,0,0,0,0,0,0,0,0,0,0,0,0,0,0,0,0,0,0,0,0,0,0,0,0,0,0,0,0,0,0,0,0,0,0,0,0,0,0,0,0,0,0,0,0,0,0,0,0,0,0,0,0,0,0,0,0,0,0,0,0,0,0,0,0,0,0,0,0,0,0,0,0,0,0,0,0,0,0,0,0,0,0,0,0,0,0,0,0,0,0,0,0,0,0,0,0,0,0,0,0,0,0,0,0,0,0,0,0,0,0,0,0,0,0,0,0,0,0,0,0,0,0,0,0,0,0,0,0,0,0,0,0,0,0,0,0,0,0,0,0,0,0,0,0,0,0,0,0,0,0,0,0,0,0,0,0,0,0,0,0,0,0,0,0,0,0,0,0,0,0,0,0,0,0,0,0,0,0,0,0,0,0,0,0,0,0,0,0,0,0,0,0,0,0,0,0,0,0,0,0,0,0,0,0,0,0,0,0,0,0,0,0,0,0,0,0,0,0,0,0,0,0,0,0,0,0,0,0,0,0,0,0,0,0,0,0,0,0,0,0,0,0,0,0,0,0,0,0,0,0,0,0,0,0,0,0,0,0,0,0,0,0,0,0,0,0,0,0,0,0,0,0,0,0,0,0,0,0,0,0,0,0,0,0,0,0,0,0,0,0,0,0,0,0,0,0,0,0,0,0,0,0,0,0,0,0,0,0,0,0,0,0,0,0,0,0,0,0,0,0,0,0,0,0,0,0,0,0,0,0,0,0,0,0,0,0,0,0,0,0,0,0,0,0,0,0,0,0,0,0,0,0,0,0,0,0,0,0,0,0,0,0,0,0,0,0,0,0,0,0,0,0,0,0,0,0,0,0,0,0,0,0,0,0,0,0,0,0,0,0,0,0,0,0,0,0,0,0,0,0,0,0,0,0,0,0,0,0,0,0,0,0,0,0,0,0,0,0,0,0,0,0,0,0,0,0,0,0,0,0,0,0,0,0,0,0,0,0,0,0,0,0,0,0,0,0,0,0,0,0,0,0,0,0,0,0,0,0,0,0,0,0,0,0,0,0,0,0,0,0,0,0,0,0,0,0,0,0,0,0,0,0,0,0,0,0,0,0,0,0,0,0,0,0,0,0,0,0,0,0,0,0,0,0,0,0,0,0,0,0,0,0,0,0,0,0,0,0,0,0,0,0,0,0,0,0,0,0,0,0,0,0,0,0,0,0,0,0,0,0,0,0,0,0,0,0,0,0,0,0,0,0,0,0,0,0,0,0,0,0,0,0,0,0,0,0,0,0,0,0,0,0,0,0,0,0,0,0,0,0,0,0,0,0,0,0,0,0,0,0,0,0,0,0,0,0,0,0,0,0,0,0,0,0,0,0,0,0,0,0,0,0,0,0,0,0,0,0,0,0,0,0,0,0,0,0,0,0,0,0,0,0,0,0,0,0,0,0,0,0,0,0,0,0,0,0,0,0,0,0,0,0,0,0,0,0,0,0,0,0,0,0,0,0,0,0,0,0,0,0,0,0,0,0,0,0,0,0,0,0,0,0,0,0,0,0,0,0,0,0,0,0,0,0,0,0,0,0,0,0,0,0,0,0,0,0,0,0,0,0,0,0,0,0,0,0,0,0,0,0,0,0,0,0,0,0,0,0,0,0,0,0,0,0,0,0,0,0,0,0,0,0,0,0,0,0,0,0,0,0,0,0,0,0,0,0,0,0,0,0,0,0,0,0,0,0,0,0,0,0,0,0,0,0,0,0,0,0,0,0,0,0,0,0,0,0,0,0,0,0,0,0,0,0,0,0,0,0,0,0,0,0,0,0,0,0,0,0,0,0,0,0,0,0,0,0,0,0,0,0,0,0,0,0,0,0,0,0,0,0,0,0,0,0,0,0,0,0,0,0,0,0,0,0,0,0,0,0,0,0,0,0,0,0,0,0,0,0,0,0,0,0,0,0,0,0,0,0,0,0,0,0,0,0,0,0,0,0,0,0,0,0,0,0,0,0,0,0,0,0,0,0,0,0,0,0,0,0,0,0,0,0,0,0,0,0,0,0,0,0,0,0,0,0,0,0,0,0,0,0,0,0,0,0,0,0,0,0,0,0,0,0,0,0,0,0,0,0,0,0,0,0,0,0,0,0,0,0,0,0,0,0,0,0,0,0,0,0,0,0,0,0,0,0,0,0,0,0,0,0,0,0,0,0,0,0,0,0,0,0,0,0,0,0,0,0,0,0,0,0,0,0,0,0,0,0,0,0,0,0,0,0,0,0,0,0,0,0,0,0,0,0,0,0,0,0,0,0,0,0,0,0,0,0,0,0,0,0,0,0,0,0,0,0,0,0,0,0,0,0,0,0,0,0,0,0,0,0,0,0,0,0,0,0,0,0,0,0,0,0,0,0,0,0,0,0,0,0,0,0,0,0,0,0,0,0,0,0,0,0,0,0,0,0,0,0,0,0,0,0,0,0,0,0,0,0,0,0,0,0,0,0,0,0,0,0,0,0,0,0,0,0,0,0,0,0,0,0,0,0,0,0,0,0,0,0,0,0,0,0,0,0,0,0,0,0,0,0,0,0,0,0,0,0,0,0,0,0,0,0,0,0,0,0,0,0,0,0,0,0,0,0,0,0,0,0,0,0,0,0,0,0,0,0,0,0,0,0,0,0,0,0,0,0,0,0,0,0,0,0,0,0,0,0,0,0,0,0,0,0,0,0,0,0,0,0,0,0,0,0,0,0,0,0,0,0,0,0,0,0,0,0,0,0,0,0,0,0,0,0,0,0,0,0,0,0,0,0,0,0,0,0,0,0,0,0,0,0,0,0,0,0,0,0,0,0,0,0,0,0,0,0,0,0,0,0,0,0,0,0,0,0,0,0,0,0,0,0,0,0,0,0,0,0,0,0,0,0,0,0,0,0,0,0,0,0,0,0,0,0,0,0,0,0,0,0,0,0,0,0,0,0,0,0,0,0,0,0,0,0,0,0,0,0,0,0,0,0,0,0,0,0,0,0,0,0,0,0,0,0,0,0,0,0,0,0,0,0,0,0,0,0,0,0,0,0,0,0,0,0,0,0,0,0,0,0,0,0,0,0,0,0,0,0,0,0,0,0,0,0,0,0,0,0,0,0,0,0,0,0,0,0,0,0,0,0,0,0,0,0,0,0,0,0,0,0,0,0,0,0,0,0,0,0,0,0,0,0,0,0,0,0,0,0,0,0,0,0,0,0,0,0,0,0,0,0,0,0,0,0,0,0,0,0,0,0,0,0,0,0,0,0,0,0,0,0,0,0,0,0,0,0,0,0,0,0,0,0,0,0,0,0,0,0,0,0,0,0,0,0,0,0,0,0,0,0,0,0,0,0,0,0,0,0,0,0,0,0,0,0,0,0,0,0,0,0,0,0,0,0,0,0,0,0,0,0,0,0,0,0,0,0,0,0,0,0,0,0,0,0,0,0,0,0,0,0,0,0,0,0,0,0,0,0,0,0,0,0,0,0,0,0,0,0,0,0,0,0,0,0,0,0,0,0,0,0,0,0,0,0,0,0,0,0,0,0,0,0,0,0,0,0,0,0,0,0,0,0,0,0,0,0,0,0,0,0,0,0,0,0,0,0,0,0,0,0,0,0,0,0,0,0,0,0,0,0,0,0,0,0,0,0,0,0,0,0,0,0,0,0,0,0,0,0,0,0,0,0,0,0,0,0,0,0,0,0,0,0,0,0,0,0,0,0,0,0,0,0,0,0,0,0,0,0,0,0,0,0,0,0,0,0,0,0,0,0,0,0,0,0,0,0,0,0,0,0,0,0,0,0,0,0,0,0,0,0,0,0,0,0,0,0,0,0,0,0,0,0,0,0,0,0,0,0,0,0,0,0,0,0,0,0,0,0,0,0,0,0,0,0,0,0,0,0,0,0,0,0,0,0,0,0,0,0,0,0,0,0,0,0,0,0,0,0,0,0,0,0,0,0,0,0,0,0,0,0,0,0,0,0,0,0,0,0,0,0,0,0,0,0,0,0,0,0,0,0,0,0,0,0,0,0,0,0,0,0,0,0,0,0,0,0,0,0,0,0,0,0,0,0,0,0,0,0,0,0,0,0,0,0,0,0,0,0,0,0,0,0,0,0,0,0,0,0,0,0,0,0,0,0,0,0,0,0,0,0,0,0,0,0,0,0,0,0,0,0,0,0,0,0,0,0,0,0,0,0,0,0,0,0,0,0,0,0],"trees":[{"base_weights":[1.4685583E-2,-6.106064E-1,4.185409E-2,-1.2934911E0,1.0752425E0,-1.8017437E0,-9.7576624E-1,1.4992968E0,-8.1216604E-1,-3.3745416E-2,-3.122505E-2,-1.358042E0,-1.8417217E-1,1.6156348E0,-2.2945216E-2,-1.5841889E0,-1.1649325E-1,-8.290761E-1,-1.6237583E0,9.750724E-3,-1.5913913E0,8.5880345E-1,1.8704225E0,-3.374507E-2,-1.4146497E0,7.448182E-1,-9.969441E-1,-1.5371091E0,6.409354E-1,-1.4186603E0,-1.7638892E0,4.0176603E-1,-4.646827E-1,-3.3745017E-2,-2.4850994E-2,1.5019673E0,-1.2481071E0,2.014051E0,1.5149605E0,-2.1649173E-2,-3.1986736E-2,2.525862E-2,4.795431E-3,-2.834495E-2,-1.0120407E-2,-3.820542E-3,-1.7019674E0,-1.4845323E-2,1.1133962E0,-1.5329641E0,-1.0945432E-2,-1.7920873E0,-1.6804571E0,-2.114512E-2,5.600246E-1,1.1965701E-2,-6.0956776E-1,1.9153734E0,1.1192794E0,-3.374485E-2,-1.2647654E-2,2.1437764E0,1.6333005E0,1.2845663E0,1.9002311E0,-1.3301862E0,-3.3745345E-2,8.254209E-3,1.5587525E0,-2.0678647E-2,-1.6242721E0,-1.7641047E0,-3.3745363E-2,-1.7792772E0,-2.4954343E-2,8.213665E-1,-2.530387E-1,-4.4699502E-1,-2.2788722E-2,2.1541755E0,2.6030488E-2,7.578833E-1,3.5419535E-2,3.3895813E-2,2.1792066E0,1.03541305E-2,1.9740593E0,1.916551E0,6.4618796E-1,4.1853644E-2,2.7030267E-2,-3.0308563E-2,-1.8993944E-2,1.8453913E-2,3.7574355E-2,-1.4578772E0,-1.7349526E0,-3.0228639E-2,-3.374526E-2,-3.3745196E-2,-3.190095E-2,1.057447E0,4.139664E-1,-3.0144908E-2,1.4001456E-2,-6.39348E-1,9.208687E-3,3.8165625E-2,4.185351E-2,9.094188E-3,2.1570904E-2,2.2294655E0,2.0587037E0,1.811815E0,4.0725302E-2,2.8413713E-2,4.1853532E-2,-1.5455951E-3,2.8413713E-2,-1.9481083E-2,-3.1430915E-2,-2.8867686E-2,-3.3745274E-2,1.5646188E-2,3.34536E-2,1.4001456E-2,1.3543289E-3,-6.7097964E-3,-2.4295198E-2,4.00534E-2,4.1854016E-2,4.0295042E-2,3.5446916E-2,2.9546686E-2,3.8253445E-2],"categories":[],"categories_nodes":[],"categories_segments":[],"categories_sizes":[],"default_left":[0,0,0,0,0,0,0,0,0,0,0,0,0,0,0,0,0,0,0,0,0,0,0,0,0,0,0,0,0,0,0,0,0,0,0,0,0,0,0,0,0,0,0,0,0,0,0,0,0,0,0,0,0,0,0,0,0,0,0,0,0,0,0,0,0,0,0,0,0,0,0,0,0,0,0,0,0,0,0,0,0,0,0,0,0,0,0,0,0,0,0,0,0,0,0,0,0,0,0,0,0,0,0,0,0,0,0,0,0,0,0,0,0,0,0,0,0,0,0,0,0,0,0,0,0,0,0,0,0,0,0,0,0,0,0],"id":0,"left_children":[1,3,-1,5,7,9,11,13,15,-1,-1,17,19,21,-1,23,25,27,29,31,33,35,37,-1,39,41,43,45,47,49,51,53,55,-1,-1,57,59,61,63,-1,-1,-1,-1,-1,-1,-1,65,-1,67,69,-1,71,73,-1,75,-1,77,79,81,-1,-1,83,85,87,89,91,-1,-1,93,-1,95,97,-1,99,-1,101,103,105,-1,107,-1,109,-1,-1,111,-1,113,115,117,-1,-1,-1,-1,-1,-1,119,121,-1,-1,-1,-1,123,125,-1,-1,127,-1,-1,-1,-1,-1,129,131,133,-1,-1,-1,-1,-1,-1,-1,-1,-1,-1,-1,-1,-1,-1,-1,-1,-1,-1,-1,-1,-1],"loss_changes":[2.88197E3,1.8611932E3,0E0,1.8580493E2,3.7303046E2,2.6013184E-1,2.1424902E2,1.20758545E2,4.5922626E1,0E0,0E0,6.710669E1,6.2919846E1,7.0383545E1,0E0,1.5252762E0,3.4107906E1,1.6615848E2,9.133362E0,3.76884E1,1.566742E0,1.2457402E2,1.3940918E1,0E0,1.7488441E0,6.7384443E0,5.267435E0,2.3670883E1,3.5198265E1,1.2279419E1,4.4360352E-1,2.6930117E1,1.4680494E1,0E0,0E0,1.1142075E1,6.853092E0,9.605591E0,6.975128E0,0E0,0E0,0E0,0E0,0E0,0E0,0E0,3.7173157E0,0E0,1.1678146E1,4.4129333E0,0E0,5.5358887E-2,1.6244202E0,0E0,2.1371954E1,0E0,8.041204E0,4.2202377E0,1.0264629E1,0E0,0E0,1.6925659E0,1.817369E1,1.9840324E1,4.533287E0,1.9234238E0,0E0,0E0,6.064827E0,0E0,1.7198639E0,2.915802E-1,0E0,7.1144104E-2,0E0,7.320526E0,3.336817E1,1.1571743E1,0E0,2.2174072E-1,0E0,2.684412E0,0E0,0E0,7.9229736E-1,0E0,1.25354E0,3.1646042E0,1.5598625E1,0E0,0E0,0E0,0E0,0E0,0E0,3.477356E0,7.5857544E-1,0E0,0E0,0E0,0E0,7.771618E0,3.1990113E0,0E0,0E0,9.841707E0,0E0,0E0,0E0,0E0,0E0,8.468628E-2,6.0972595E-1,1.1397934E0,0E0,0E0,0E0,0E0,0E0,0E0,0E0,0E0,0E0,0E0,0E0,0E0,0E0,0E0,0E0,0E0,0E0,0E0,0E0,0E0,0E0],"parents":[2147483647,0,0,1,1,3,3,4,4,5,5,6,6,7,7,8,8,11,11,12,12,13,13,15,15,16,16,17,17,18,18,19,19,20,20,21,21,22,22,24,24,25,25,26,26,27,27,28,28,29,29,30,30,31,31,32,32,35,35,36,36,37,37,38,38,46,46,48,48,49,49,51,51,52,52,54,54,56,56,57,57,58,58,61,61,62,62,63,63,64,64,65,65,68,68,70,70,71,71,73,73,75,75,76,76,77,77,79,79,81,81,84,84,86,86,87,87,88,88,95,95,96,96,101,101,102,102,105,105,111,111,112,112,113,113],"right_children":[2,4,-1,6,8,10,12,14,16,-1,-1,18,20,22,-1,24,26,28,30,32,34,36,38,-1,40,42,44,46,48,50,52,54,56,-1,-1,58,60,62,64,-1,-1,-1,-1,-1,-1,-1,66,-1,68,70,-1,72,74,-1,76,-1,78,80,82,-1,-1,84,86,88,90,92,-1,-1,94,-1,96,98,-1,100,-1,102,104,106,-1,108,-1,110,-1,-1,112,-1,114,116,118,-1,-1,-1,-1,-1,-1,120,122,-1,-1,-1,-1,124,126,-1,-1,128,-1,-1,-1,-1,-1,130,132,134,-1,-1,-1,-1,-1,-1,-1,-1,-1,-1,-1,-1,-1,-1,-1,-1,-1,-1,-1,-1,-1],"split_conditions":[-2.9904196E-1,-8.9812726E-2,4.185409E-2,-2.992875E-1,3.684086E-1,-3.0088338E-1,-1.6245367E-1,4.1857496E-2,5.402036E-1,-3.3745416E-2,-3.122505E-2,-2.8358796E-1,-4.6293803E-2,1.32748E-1,-2.2945216E-2,2.0320275E-1,7.1285963E-1,-5.862207E-1,-1.5518561E-1,-8.860054E-2,-2.5376827E-1,7.9389594E-2,-1.0967243E-1,-3.374507E-2,5.302575E-1,4.9067646E-1,-1.345516E-1,-6.341899E-1,-7.743637E-1,-1.8021111E-1,4.202588E-1,-4.6299417E-2,-2.3438068E-1,-3.3745017E-2,-2.4850994E-2,-1.08328015E-1,-1.1424075E-1,1.0768727E-1,7.367279E-2,-2.1649173E-2,-3.1986736E-2,2.525862E-2,4.795431E-3,-2.834495E-2,-1.0120407E-2,-3.820542E-3,-4.742662E-1,-1.4845323E-2,5.7399E-1,-1.3767608E-1,-1.0945432E-2,-1.9330736E-1,-3.0807906E-1,-2.114512E-2,-3.755153E-2,1.1965701E-2,-1.3819145E-1,-1.0511458E-1,7.367279E-2,-3.374485E-2,-1.2647654E-2,-1.6676679E-1,3.8894808E-1,6.3338906E-2,1.1655759E-2,-1.3201721E0,-3.3745345E-2,8.254209E-3,-3.800943E-1,-2.0678647E-2,-2.3438068E-1,-4.985335E-2,-3.3745363E-2,1.2257509E-2,-2.4954343E-2,-1.0693689E-1,-1.07592635E-1,1.469758E-1,-2.2788722E-2,-1.5028657E-1,2.6030488E-2,-5.8705308E-2,3.5419535E-2,3.3895813E-2,-6.796974E-3,1.03541305E-2,8.219162E-1,4.5007024E-2,2.840815E-2,4.1853644E-2,2.7030267E-2,-3.0308563E-2,-1.8993944E-2,1.8453913E-2,3.7574355E-2,4.314513E-1,-9.688245E-2,-3.0228639E-2,-3.374526E-2,-3.3745196E-2,-3.190095E-2,-1.3201064E-1,-1.5207912E-1,-3.0144908E-2,1.4001456E-2,4.1857496E-2,9.208687E-3,3.8165625E-2,4.185351E-2,9.094188E-3,2.1570904E-2,-1.5149006E-1,-2.497386E-1,-1.4641409E-1,4.0725302E-2,2.8413713E-2,4.1853532E-2,-1.5455951E-3,2.8413713E-2,-1.9481083E-2,-3.1430915E-2,-2.8867686E-2,-3.3745274E-2,1.5646188E-2,3.34536E-2,1.4001456E-2,1.3543289E-3,-6.7097964E-3,-2.4295198E-2,4.00534E-2,4.1854016E-2,4.0295042E-2,3.5446916E-2,2.9546686E-2,3.8253445E-2],"split_indices":[13,15,0,13,18,13,15,19,15,0,0,18,0,15,0,15,18,15,18,14,2,18,14,0,18,18,14,18,19,15,27,0,18,0,0,14,14,18,27,0,0,0,0,0,0,0,18,0,21,14,0,27,15,0,18,0,15,18,27,0,0,14,15,27,18,27,0,0,15,0,18,18,0,21,0,14,14,18,0,14,0,14,0,0,18,0,15,21,18,0,0,0,0,0,0,21,14,0,0,0,0,14,18,0,0,19,0,0,0,0,0,21,21,14,0,0,0,0,0,0,0,0,0,0,0,0,0,0,0,0,0,0,0,0,0],"split_type":[0,0,0,0,0,0,0,0,0,0,0,0,0,0,0,0,0,0,0,0,0,0,0,0,0,0,0,0,0,0,0,0,0,0,0,0,0,0,0,0,0,0,0,0,0,0,0,0,0,0,0,0,0,0,0,0,0,0,0,0,0,0,0,0,0,0,0,0,0,0,0,0,0,0,0,0,0,0,0,0,0,0,0,0,0,0,0,0,0,0,0,0,0,0,0,0,0,0,0,0,0,0,0,0,0,0,0,0,0,0,0,0,0,0,0,0,0,0,0,0,0,0,0,0,0,0,0,0,0,0,0,0,0,0,0],"sum_hessian":[2.0708984E3,1.6166847E3,4.5421375E2,1.1506089E3,4.6607568E2,4.4259894E2,7.0801E2,3.8057083E2,8.5504875E1,4.2777148E2,1.4827435E1,4.774434E2,2.305666E2,3.65002E2,1.5568807E1,4.052832E1,4.497655E1,1.5964204E2,3.1780136E2,2.026416E2,2.7925001E1,9.193009E1,2.7307193E2,1.7545797E1,2.2982523E1,2.27354E1,2.2241152E1,1.07746025E2,5.1896023E1,1.2899869E2,1.8880267E2,1.1095863E2,9.168297E1,1.5321683E1,1.2603319E1,7.043031E1,2.149978E1,1.9448651E2,7.85854E1,1.2356195E1,1.0626328E1,1.013208E1,1.2603319E1,1.0379205E1,1.1861948E1,1.1861948E1,9.588408E1,1.2850444E1,3.9045578E1,1.1342988E2,1.5568807E1,1.4110776E2,4.7694916E1,1.0379205E1,1.0057943E2,1.0626328E1,8.105664E1,3.3855976E1,3.657434E1,1.0873452E1,1.0626328E1,1.4506174E2,4.942478E1,4.9177658E1,2.9407745E1,2.1005533E1,7.487855E1,1.5568807E1,2.3476772E1,2.0017036E1,9.341284E1,4.7447792E1,9.3659966E1,3.706859E1,1.0626328E1,7.611417E1,2.4465267E1,6.40051E1,1.705155E1,2.3229649E1,1.0626328E1,2.4959515E1,1.1614824E1,1.4086063E1,1.3097568E2,1.1861948E1,3.7562836E1,2.471239E1,2.4465267E1,1.6804426E1,1.2603319E1,1.0873452E1,1.013208E1,1.0379205E1,1.3097568E1,3.7315712E1,5.609713E1,1.0626328E1,3.6821465E1,2.6936506E1,1.013208E1,4.8189163E1,2.7925001E1,1.0379205E1,1.4086063E1,5.313164E1,1.0873452E1,1.013208E1,1.3097568E1,1.4827435E1,1.013208E1,9.242434E1,3.855133E1,2.1005533E1,1.6557302E1,1.1120576E1,1.3591815E1,1.3344691E1,1.1120576E1,1.3097568E1,2.4218143E1,1.5321683E1,4.0775444E1,3.706859E1,1.1120576E1,1.4086063E1,1.3838939E1,3.7315712E1,1.581593E1,1.0379205E1,8.2045135E1,2.397102E1,1.4580311E1,1.0626328E1,1.0379205E1],"tree_param":{"num_deleted":"0","num_feature":"28","num_nodes":"135","size_leaf_vector":"1"}},{"base_weights":[-1.6861537E-2,-5.995317E-1,2.187841E0,-1.261316E0,1.2358193E0,3.245634E-2,2.2053223E0,-1.7866598E0,-9.8336226E-1,5.416217E-1,1.6964383E0,2.2269363E0,2.1984122E0,-1.7828403E0,-1.7972087E0,8.6065626E-1,-1.0634242E0,8.78874E-1,-8.1667674E-1,1.7788471E0,-2.4752948E-3,2.2228193E0,2.2374403E0,2.2090824E0,2.1947315E0,-3.3447336E-2,-1.7822403E0,-1.805938E0,-1.7912744E0,-2.6499165E-2,1.9365776E0,-7.833567E-1,-1.4482809E0,1.2258509E0,-5.324535E-1,2.038585E-6,-1.3562557E0,1.8652887E0,1.1192961E0,4.1744236E-2,4.1452885E-2,4.196921E-2,4.1525252E-2,4.148497E-2,2.2072706E0,4.0958215E-2,2.202335E0,-3.328204E-2,-3.341821E-2,-3.38749E-2,-3.3601776E-2,-1.7877562E0,-3.3635654E-2,3.0876389E-2,4.0530406E-2,-1.2053499E0,-3.840668E-1,-3.932922E-1,-1.5974566E0,1.3556541E0,-3.3829428E-4,-3.8636082E-3,-2.0501735E-2,-1.762768E-2,-3.3245005E-2,1.4224594E0,2.009458E0,3.343343E-2,3.2200925E-3,4.1098963E-2,2.210626E0,2.1981986E0,4.1414533E-2,-3.3301715E-2,-3.348503E-2,-1.5288118E0,-1.0326623E0,-2.1512598E-1,-1.4104973E0,-3.3566743E-2,2.1211304E-2,-1.7216697E0,-7.601225E-1,8.277705E-1,1.4972299E0,2.0167615E-2,1.5621318E0,2.8625237E-2,2.0507152E0,4.157066E-2,4.1207124E-2,4.122685E-2,2.195133E0,-1.9331783E-2,-1.6484188E0,-4.026396E-3,-1.1135718E0,8.529065E-2,-1.0175114E0,-1.4201999E-2,-3.32453E-2,-1.7554139E0,-2.5161525E-2,-3.3698592E-2,7.230707E-3,6.6850856E-3,2.3276007E-2,1.8114459E-2,1.5757103E0,1.3038434E0,3.5491757E-2,1.8954214E0,2.093164E0,4.1177135E-2,4.0920008E-2,-1.7391487E0,-1.5864822E0,-6.8805885E-1,-1.2881625E0,-2.3384291E-1,6.401041E-1,3.975711E-3,-1.3534558E0,-2.9750668E-2,-1.7632829E0,1.6755434E0,1.9603869E-2,2.0511117E-2,2.8661476E-2,2.0162954E0,3.0627888E-2,2.1302829E0,1.9325073E0,-3.1422395E-2,-3.324707E-2,-3.2221515E-2,-2.7022555E-2,-1.3241507E-3,-1.973783E-2,-2.2074224E-2,-3.220781E-2,8.814532E-3,-8.391831E-3,2.1297226E-2,4.3109185E-3,-1.3237541E-2,-2.9151842E-2,-3.039863E-2,-3.308486E-2,2.5441062E-2,3.315774E-2,3.564623E-2,3.9402176E-2,3.7440915E-2,4.0438984E-2,3.436024E-2,3.7772324E-2],"categories":[],"categories_nodes":[],"categories_segments":[],"categories_sizes":[],"default_left":[0,0,0,0,0,0,0,0,0,0,0,0,0,0,0,0,0,0,0,0,0,0,0,0,0,0,0,0,0,0,0,0,0,0,0,0,0,0,0,0,0,0,0,0,0,0,0,0,0,0,0,0,0,0,0,0,0,0,0,0,0,0,0,0,0,0,0,0,0,0,0,0,0,0,0,0,0,0,0,0,0,0,0,0,0,0,0,0,0,0,0,0,0,0,0,0,0,0,0,0,0,0,0,0,0,0,0,0,0,0,0,0,0,0,0,0,0,0,0,0,0,0,0,0,0,0,0,0,0,0,0,0,0,0,0,0,0,0,0,0,0,0,0,0,0,0,0,0,0,0,0,0,0,0,0,0,0],"id":1,"left_children":[1,3,5,7,9,-1,11,13,15,17,19,21,23,25,27,29,31,33,35,37,-1,39,41,43,45,-1,47,49,51,-1,53,55,57,59,61,-1,63,65,67,-1,-1,-1,-1,-1,69,-1,71,-1,-1,-1,-1,73,-1,-1,-1,75,77,79,81,83,-1,-1,-1,-1,-1,85,87,-1,-1,-1,89,91,-1,-1,-1,93,95,97,99,-1,-1,101,103,105,107,-1,109,-1,111,-1,-1,-1,113,-1,115,-1,117,119,121,-1,-1,123,-1,-1,-1,-1,-1,-1,125,127,-1,129,131,-1,-1,133,135,137,139,141,143,-1,145,-1,147,149,-1,-1,-1,151,-1,153,155,-1,-1,-1,-1,-1,-1,-1,-1,-1,-1,-1,-1,-1,-1,-1,-1,-1,-1,-1,-1,-1,-1,-1,-1],"loss_changes":[2.6862566E3,2.0089324E3,3.4423828E0,1.7750964E2,1.4016144E2,0E0,6.188965E-2,1.6479492E-2,1.1737256E2,8.009114E1,3.9714233E1,3.479004E-3,1.159668E-2,7.324219E-4,5.1879883E-3,8.1117935E1,8.2125305E1,6.858791E1,1.5326475E1,1.4374512E1,0E0,2.4108887E-3,2.8839111E-3,7.6293945E-4,3.4179688E-3,0E0,8.544922E-4,1.7852783E-3,1.5106201E-3,0E0,1.4848404E0,7.430823E1,5.0506897E1,1.8152786E1,5.084685E0,0E0,3.6575317E0,1.423114E1,1.8543682E1,0E0,0E0,0E0,0E0,0E0,8.544922E-4,0E0,2.4719238E-3,0E0,0E0,0E0,0E0,5.645752E-4,0E0,0E0,0E0,1.1976013E1,3.929343E1,8.5293465E1,2.9243652E1,7.6078186E0,0E0,0E0,0E0,0E0,0E0,2.6223602E0,3.310669E0,0E0,0E0,0E0,2.5482178E-3,2.4414062E-4,0E0,0E0,0E0,4.4094543E0,9.241562E0,4.6901962E1,7.6845894E0,0E0,0E0,3.0968018E0,4.348514E1,4.230008E0,3.323639E0,0E0,3.3920746E0,0E0,1.0195923E0,0E0,0E0,0E0,4.7302246E-4,0E0,3.370819E-1,0E0,9.44873E0,2.5066275E1,2.1907646E1,0E0,0E0,2.8753662E-1,0E0,0E0,0E0,0E0,0E0,0E0,3.6717834E0,1.0452042E0,0E0,1.0277405E0,7.241821E-1,0E0,0E0,5.583191E-2,6.907959E-1,8.414267E0,4.1897736E0,1.3656748E1,1.0577946E1,0E0,5.556015E0,0E0,2.2180176E-1,1.82901E0,0E0,0E0,0E0,2.2594452E-1,0E0,4.2614746E-1,1.8945312E-1,0E0,0E0,0E0,0E0,0E0,0E0,0E0,0E0,0E0,0E0,0E0,0E0,0E0,0E0,0E0,0E0,0E0,0E0,0E0,0E0,0E0,0E0,0E0,0E0],"parents":[2147483647,0,0,1,1,2,2,3,3,4,4,6,6,7,7,8,8,9,9,10,10,11,11,12,12,13,13,14,14,15,15,16,16,17,17,18,18,19,19,21,21,22,22,23,23,24,24,26,26,27,27,28,28,30,30,31,31,32,32,33,33,34,34,36,36,37,37,38,38,44,44,46,46,51,51,55,55,56,56,57,57,58,58,59,59,65,65,66,66,70,70,71,71,75,75,76,76,77,77,78,78,81,81,82,82,83,83,84,84,86,86,88,88,92,92,94,94,96,96,97,97,98,98,101,101,108,108,109,109,111,111,112,112,115,115,116,116,117,117,118,118,119,119,120,120,122,122,124,124,125,125,129,129,131,131,132,132],"right_children":[2,4,6,8,10,-1,12,14,16,18,20,22,24,26,28,30,32,34,36,38,-1,40,42,44,46,-1,48,50,52,-1,54,56,58,60,62,-1,64,66,68,-1,-1,-1,-1,-1,70,-1,72,-1,-1,-1,-1,74,-1,-1,-1,76,78,80,82,84,-1,-1,-1,-1,-1,86,88,-1,-1,-1,90,92,-1,-1,-1,94,96,98,100,-1,-1,102,104,106,108,-1,110,-1,112,-1,-1,-1,114,-1,116,-1,118,120,122,-1,-1,124,-1,-1,-1,-1,-1,-1,126,128,-1,130,132,-1,-1,134,136,138,140,142,144,-1,146,-1,148,150,-1,-1,-1,152,-1,154,156,-1,-1,-1,-1,-1,-1,-1,-1,-1,-1,-1,-1,-1,-1,-1,-1,-1,-1,-1,-1,-1,-1,-1,-1],"split_conditions":[-1.9433123E-1,-3.3782184E-2,-1.791353E-1,-2.7485135E-1,-3.2435585E-2,3.245634E-2,-8.9812726E-2,-1.6245367E-1,-2.6008698E-1,-9.055179E-2,2.1072079E-1,-9.194294E-2,-4.903351E-2,-1.2095405E0,-1.3819145E-1,-1.062574E-1,-3.3793867E-2,4.8489198E-1,-2.2818448E-1,1.444491E0,-2.4752948E-3,-2.1316473E-1,4.707507E-1,-1.1266068E0,-1.0967243E-1,-3.3447336E-2,-2.8328392E-1,-8.860054E-2,5.187049E-1,-2.6499165E-2,-6.6026226E-2,-3.409181E-2,-2.3204489E-1,8.926219E-1,-1.6393968E-1,2.038585E-6,2.1072079E-1,-1.7012204E-1,-1.6463752E-1,4.1744236E-2,4.1452885E-2,4.196921E-2,4.1525252E-2,4.148497E-2,-1.8689224E-1,4.0958215E-2,-1.6111854E-1,-3.328204E-2,-3.341821E-2,-3.38749E-2,-3.3601776E-2,-1.0029774E0,-3.3635654E-2,3.0876389E-2,4.0530406E-2,-3.4237865E-2,2.7159609E-2,-1.08328015E-1,-2.2675394E-1,-1.6828428E-1,-3.3829428E-4,-3.8636082E-3,-2.0501735E-2,-1.762768E-2,-3.3245005E-2,-2.7954718E-2,-5.9841406E-1,3.343343E-2,3.2200925E-3,4.1098963E-2,-9.592081E-2,1.32748E-1,4.1414533E-2,-3.3301715E-2,-3.348503E-2,-9.2797726E-1,-1.0446094E0,1.3649291E-1,-5.69447E-1,-3.3566743E-2,2.1211304E-2,-2.7982304E-1,-1.1188563E-1,-9.7237065E-2,-5.0721455E-1,2.0167615E-2,-1.7138548E-1,2.8625237E-2,-4.1402155E-1,4.157066E-2,4.1207124E-2,4.122685E-2,7.775654E-2,-1.9331783E-2,-3.4290444E-2,-4.026396E-3,-1.6346015E-1,-3.3937E-2,-1.697925E-1,-1.4201999E-2,-3.32453E-2,-5.0721455E-1,-2.5161525E-2,-3.3698592E-2,7.230707E-3,6.6850856E-3,2.3276007E-2,1.8114459E-2,2.0420784E-1,3.921603E-2,3.5491757E-2,-4.7871467E-1,-1.2741041E-1,4.1177135E-2,4.0920008E-2,-4.4890663E-1,-4.4345585E-1,-2.5376827E-1,-2.8195664E-1,-5.538733E-1,-3.5335067E-1,3.975711E-3,3.9876947E-1,-2.9750668E-2,-1.1579484E0,-5.780809E-1,1.9603869E-2,2.0511117E-2,2.8661476E-2,-2.6371518E-2,3.0627888E-2,-2.8430847E-2,-8.570647E-2,-3.1422395E-2,-3.324707E-2,-3.2221515E-2,-2.7022555E-2,-1.3241507E-3,-1.973783E-2,-2.2074224E-2,-3.220781E-2,8.814532E-3,-8.391831E-3,2.1297226E-2,4.3109185E-3,-1.3237541E-2,-2.9151842E-2,-3.039863E-2,-3.308486E-2,2.5441062E-2,3.315774E-2,3.564623E-2,3.9402176E-2,3.7440915E-2,4.0438984E-2,3.436024E-2,3.7772324E-2],"split_indices":[17,1,17,17,1,0,15,15,17,5,5,14,17,20,15,14,1,2,9,9,0,15,21,21,14,0,17,14,15,0,14,1,17,9,5,0,5,5,5,0,0,0,0,0,24,0,22,0,0,0,0,21,0,0,0,1,5,14,17,5,0,0,0,0,0,1,2,0,0,0,24,15,0,0,0,9,9,2,2,0,0,2,14,2,2,0,5,0,2,0,0,0,21,0,1,0,5,1,5,0,0,2,0,0,0,0,0,0,9,9,0,2,5,0,0,2,2,2,2,2,9,0,2,0,20,9,0,0,0,1,0,1,5,0,0,0,0,0,0,0,0,0,0,0,0,0,0,0,0,0,0,0,0,0,0,0,0],"split_type":[0,0,0,0,0,0,0,0,0,0,0,0,0,0,0,0,0,0,0,0,0,0,0,0,0,0,0,0,0,0,0,0,0,0,0,0,0,0,0,0,0,0,0,0,0,0,0,0,0,0,0,0,0,0,0,0,0,0,0,0,0,0,0,0,0,0,0,0,0,0,0,0,0,0,0,0,0,0,0,0,0,0,0,0,0,0,0,0,0,0,0,0,0,0,0,0,0,0,0,0,0,0,0,0,0,0,0,0,0,0,0,0,0,0,0,0,0,0,0,0,0,0,0,0,0,0,0,0,0,0,0,0,0,0,0,0,0,0,0,0,0,0,0,0,0,0,0,0,0,0,0,0,0,0,0,0,0],"sum_hessian":[2.0910994E3,1.6539777E3,4.3712164E2,1.2156449E3,4.3833276E2,1.6326609E1,4.2079504E2,4.2063208E2,7.9501276E2,1.7483691E2,2.6349585E2,1.0192405E2,3.18871E2,3.0884018E2,1.1179189E2,3.308084E1,7.6193195E2,1.4006116E2,3.4775757E1,2.5213503E2,1.1360806E1,7.325251E1,2.8671537E1,8.1756836E1,2.3711417E2,2.2930147E1,2.8591003E2,4.5218124E1,6.657377E1,1.0608812E1,2.2472029E1,4.4100482E2,3.2092712E2,1.1242206E2,2.7639105E1,1.38343E1,2.0941456E1,2.2291867E2,2.921636E1,1.878888E1,5.4463634E1,1.7782824E1,1.0888713E1,1.1138094E1,7.0618744E1,1.8034964E2,5.6764526E1,2.5534445E2,3.056559E1,2.2754292E1,2.2463833E1,4.8057472E1,1.8516298E1,1.0127242E1,1.2344787E1,2.1440672E2,2.2659808E2,3.9757557E1,2.811696E2,1.0179958E2,1.0622475E1,1.7532703E1,1.0106401E1,1.0602658E1,1.03387985E1,5.4750237E1,1.6816843E2,1.7107235E1,1.2109124E1,2.2065907E1,4.8552834E1,4.4137222E1,1.2627303E1,2.24108E1,2.564667E1,7.462495E1,1.3978177E2,1.9457338E2,3.2024715E1,2.0727901E1,1.9029657E1,2.4484778E2,3.6321796E1,2.1528624E1,8.027096E1,1.5844889E1,3.890535E1,1.338138E1,1.5478705E2,1.2371549E1,3.6181286E1,1.1646582E1,3.249064E1,1.4545258E1,6.007969E1,1.2593582E1,1.27188194E2,1.4156934E2,5.300403E1,1.1593281E1,2.0431437E1,2.2462714E2,2.0220634E1,1.9019E1,1.73028E1,1.01361265E1,1.1392498E1,1.0393933E1,6.987703E1,2.2042461E1,1.6862886E1,3.322952E1,1.2155753E2,1.1401112E1,2.1089529E1,2.4372221E1,3.5707466E1,3.7003693E1,9.01845E1,8.987344E1,5.1695896E1,1.1368749E1,4.163528E1,1.03479805E1,2.1427916E2,5.873682E1,1.1140207E1,1.163654E1,1.0405921E1,2.2571802E1,1.0657716E1,9.874153E1,2.2815998E1,1.0094604E1,1.4277618E1,1.7971783E1,1.7735683E1,1.3832411E1,2.3171282E1,7.24588E1,1.7725698E1,2.1013523E1,6.8859924E1,2.3275047E1,2.842085E1,1.011442E1,3.152086E1,1.1362063E1,2.029171E2,1.4116313E1,4.4620506E1,1.0415486E1,1.2156317E1,2.1083033E1,7.76585E1,1.1157905E1,1.1658093E1],"tree_param":{"num_deleted":"0","num_feature":"28","num_nodes":"157","size_leaf_vector":"1"}},{"base_weights":[1.741135E-2,-5.838544E-1,2.1655374E0,-1.7625114E0,-1.478934E-1,2.1851728E0,2.1558883E0,-1.7689474E0,-2.9503496E-2,3.7970147E-1,-6.2887895E-1,2.195981E0,2.1778033E0,2.1651726E0,2.1491148E0,-1.7654451E0,-1.7737845E0,6.036984E-1,-1.0156758E0,-7.554638E-1,-2.2723444E-2,4.1239742E-2,2.190705E0,4.0485907E-2,2.1828704E0,2.162021E0,4.0913146E-2,2.1476984E0,4.0585753E-2,-1.7635524E0,-1.7743903E0,-1.7655741E0,-1.7790889E0,-5.9908026E-1,7.534975E-1,-1.6237283E0,-7.865991E-1,-8.558043E-1,-6.166116E-2,8.62969E-1,-3.940058E-1,4.1056648E-2,4.0811647E-2,2.1895967E0,2.1750755E0,4.071206E-2,2.1601744E0,2.1464152E0,4.0423166E-2,-1.7687004E0,-1.7616806E0,-3.3301592E-2,-3.308071E-2,-3.2911718E-2,-3.323531E-2,-1.7835379E0,-1.7712725E0,6.3556884E-3,-8.402198E-1,-6.358187E-1,8.3819306E-1,-2.7665528E-2,-3.288734E-2,-4.2825618E-1,-1.3278474E0,-1.9345546E-1,-1.0038632E0,-2.1531591E-2,1.9762239E-1,1.1809171E0,3.795203E-3,-6.451234E-2,-9.5979756E-1,4.099135E-2,4.078088E-2,4.0785864E-2,4.047434E-2,4.0594824E-2,2.1586761E0,4.0268514E-2,4.0082697E-2,-3.290158E-2,-3.312337E-2,-3.286142E-2,-1.7636029E0,-1.7778635E0,-3.347653E-2,-3.303508E-2,-3.3200257E-2,-7.509535E-3,-1.0911394E0,-4.132779E-3,-2.254394E-2,9.224136E-1,-4.313182E-1,-1.6541636E-2,-1.7485824E-1,-2.998897E-2,-1.8243622E-2,-9.506769E-1,3.6086315E-1,1.1149316E-2,-1.0753784E0,1.7778741E-2,-3.8781983E-3,1.6161986E-2,2.7558943E-2,3.4130576E-1,-1.6789487E-2,-1.1328397E-2,-2.274449E-2,4.039244E-2,4.0261976E-2,-3.282994E-2,-3.2973047E-2,-3.315022E-2,-3.340176E-2,-1.4896704E-2,-2.4079366E-2,9.569771E-1,-5.6257374E-3,6.3755544E-4,-1.4452245E-2,3.339365E-3,-1.050189E-2,-2.638353E-2,-7.301337E-1,-4.2236917E-2,7.426895E-1,-2.349816E-3,-1.103348E0,-2.7686778E-1,6.624428E-3,-2.2959134E-3,5.5210686E-1,1.0480738E0,5.757103E-1,-6.2395274E-3,-2.0764094E-2,-7.748184E-3,5.3180773E-3,2.306745E-2,7.0861937E-3,-1.4142327E0,-1.0114965E0,2.509256E-3,-1.3550809E-2,1.3400325E-2,7.087709E-3,2.0872984E-2,9.787007E-3,2.44836E-3,1.3607493E-2,-2.4510793E-2,-3.287433E-2,-6.739555E-4,-2.0146595E-2],"categories":[],"categories_nodes":[],"categories_segments":[],"categories_sizes":[],"default_left":[0,0,0,0,0,0,0,0,0,0,0,0,0,0,0,0,0,0,0,0,0,0,0,0,0,0,0,0,0,0,0,0,0,0,0,0,0,0,0,0,0,0,0,0,0,0,0,0,0,0,0,0,0,0,0,0,0,0,0,0,0,0,0,0,0,0,0,0,0,0,0,0,0,0,0,0,0,0,0,0,0,0,0,0,0,0,0,0,0,0,0,0,0,0,0,0,0,0,0,0,0,0,0,0,0,0,0,0,0,0,0,0,0,0,0,0,0,0,0,0,0,0,0,0,0,0,0,0,0,0,0,0,0,0,0,0,0,0,0,0,0,0,0,0,0,0,0,0,0,0,0,0,0,0,0,0,0],"id":2,"left_children":[1,3,5,7,9,11,13,15,-1,17,19,21,23,25,27,29,31,33,35,37,39,-1,41,-1,43,45,-1,47,-1,49,51,53,55,57,59,61,63,65,67,69,71,-1,-1,73,75,-1,77,79,-1,81,83,-1,-1,-1,-1,85,87,-1,89,91,93,-1,-1,95,97,99,101,-1,103,105,-1,107,109,-1,-1,-1,-1,-1,111,-1,-1,-1,-1,-1,113,115,-1,-1,-1,-1,117,-1,-1,119,121,-1,123,-1,-1,125,127,-1,129,-1,131,-1,-1,133,-1,-1,-1,-1,-1,-1,-1,-1,-1,-1,-1,135,-1,-1,-1,-1,-1,-1,137,139,141,-1,143,145,-1,-1,147,149,151,-1,-1,-1,-1,-1,-1,153,155,-1,-1,-1,-1,-1,-1,-1,-1,-1,-1,-1,-1],"loss_changes":[2.7094836E3,8.422063E2,8.618164E-2,5.2160645E-1,3.0362247E2,1.1108398E-2,1.8432617E-2,6.591797E-3,0E0,1.7834328E2,4.8023834E1,2.7770996E-3,3.9978027E-3,9.216309E-3,4.9438477E-3,3.6010742E-3,7.2021484E-3,8.8585526E1,1.099334E1,3.604431E1,3.5555893E1,0E0,8.69751E-4,0E0,2.2888184E-3,2.746582E-3,0E0,2.5634766E-3,0E0,1.4648438E-3,7.019043E-4,3.112793E-3,3.1738281E-3,1.2333282E1,5.1446243E1,4.2110443E-1,1.1118858E1,4.435919E1,1.8503E1,6.7001514E0,1.42031145E1,0E0,0E0,9.1552734E-5,1.0681152E-3,0E0,1.0681152E-3,5.493164E-4,0E0,1.1749268E-3,1.8310547E-4,0E0,0E0,0E0,0E0,2.6855469E-3,9.1552734E-5,0E0,4.764698E0,5.945981E0,4.406021E1,0E0,0E0,3.9956365E0,2.2248878E0,3.46879E1,4.2319397E1,0E0,8.03053E0,2.0023556E0,0E0,1.6299055E1,2.552929E0,0E0,0E0,0E0,0E0,0E0,2.4414062E-4,0E0,0E0,0E0,0E0,0E0,1.2207031E-4,8.392334E-4,0E0,0E0,0E0,0E0,1.6003723E0,0E0,0E0,1.6343018E1,4.084103E0,0E0,3.0389533E0,0E0,0E0,3.5550365E0,7.343728E0,0E0,9.39917E0,0E0,4.0815268E0,0E0,0E0,3.1695166E0,0E0,0E0,0E0,0E0,0E0,0E0,0E0,0E0,0E0,0E0,0E0,1.3053436E1,0E0,0E0,0E0,0E0,0E0,0E0,3.569934E0,2.8262165E0,4.3810005E0,0E0,9.815918E0,4.3660703E0,0E0,0E0,6.3540363E-1,1.1000488E1,4.919691E0,0E0,0E0,0E0,0E0,0E0,0E0,2.7688446E0,1.7309326E1,0E0,0E0,0E0,0E0,0E0,0E0,0E0,0E0,0E0,0E0,0E0,0E0],"parents":[2147483647,0,0,1,1,2,2,3,3,4,4,5,5,6,6,7,7,9,9,10,10,11,11,12,12,13,13,14,14,15,15,16,16,17,17,18,18,19,19,20,20,22,22,24,24,25,25,27,27,29,29,30,30,31,31,32,32,33,33,34,34,35,35,36,36,37,37,38,38,39,39,40,40,43,43,44,44,46,46,47,47,49,49,50,50,55,55,56,56,58,58,59,59,60,60,63,63,64,64,65,65,66,66,68,68,69,69,71,71,72,72,78,78,84,84,85,85,90,90,93,93,94,94,96,96,99,99,100,100,102,102,104,104,107,107,119,119,126,126,127,127,128,128,130,130,131,131,134,134,135,135,136,136,143,143,144,144],"right_children":[2,4,6,8,10,12,14,16,-1,18,20,22,24,26,28,30,32,34,36,38,40,-1,42,-1,44,46,-1,48,-1,50,52,54,56,58,60,62,64,66,68,70,72,-1,-1,74,76,-1,78,80,-1,82,84,-1,-1,-1,-1,86,88,-1,90,92,94,-1,-1,96,98,100,102,-1,104,106,-1,108,110,-1,-1,-1,-1,-1,112,-1,-1,-1,-1,-1,114,116,-1,-1,-1,-1,118,-1,-1,120,122,-1,124,-1,-1,126,128,-1,130,-1,132,-1,-1,134,-1,-1,-1,-1,-1,-1,-1,-1,-1,-1,-1,136,-1,-1,-1,-1,-1,-1,138,140,142,-1,144,146,-1,-1,148,150,152,-1,-1,-1,-1,-1,-1,154,156,-1,-1,-1,-1,-1,-1,-1,-1,-1,-1,-1,-1],"split_conditions":[-2.9904196E-1,-2.992875E-1,-2.8736985E-1,-3.0088338E-1,-1.0693689E-1,-2.9179212E-1,-2.5730658E-1,-2.9150462E-1,-2.9503496E-2,3.684086E-1,-1.2452838E-2,-1.146864E-1,-1.696232E-1,-9.055179E-2,7.411203E-4,-1.1252835E-3,-4.944915E-2,-1.697522E-1,-1.6068232E-1,1.5927762E-1,6.536276E-2,4.1239742E-2,-4.012121E-2,4.0485907E-2,-1.106708E-1,-1.717079E-1,4.0913146E-2,1.444491E0,4.0585753E-2,-1.6569383E-1,-3.2009777E-1,-2.8241345E-1,-9.055179E-2,-4.3122643E-1,-5.045718E-1,5.0388E-1,7.1285963E-1,-1.8771624E-2,-2.4753469E-1,3.62594E-2,4.60262E-1,4.1056648E-2,4.0811647E-2,-2.8921288E-1,-2.894162E-1,4.071206E-2,-4.943504E-2,-1.7028452E-1,4.0423166E-2,-2.9359546E-1,-2.9324177E-1,-3.3301592E-2,-3.308071E-2,-3.2911718E-2,-3.323531E-2,-2.894162E-1,-2.8837076E-1,6.3556884E-3,-1.06153354E-1,-1.3767608E-1,5.357516E-1,-2.7665528E-2,-3.288734E-2,4.1596556E-1,3.667529E-3,-2.9235762E-1,-3.573989E-1,-2.1531591E-2,-9.783826E-2,-1.9565968E-1,3.795203E-3,1.7959097E-1,-4.953307E-2,4.099135E-2,4.078088E-2,4.0785864E-2,4.047434E-2,4.0594824E-2,-2.8197435E-1,4.0268514E-2,4.0082697E-2,-3.290158E-2,-3.312337E-2,-3.286142E-2,-4.9428023E-2,-8.384661E-2,-3.347653E-2,-3.303508E-2,-3.3200257E-2,-7.509535E-3,-3.755153E-2,-4.132779E-3,-2.254394E-2,1.7494622E0,-7.9231906E-1,-1.6541636E-2,8.170738E-1,-2.998897E-2,-1.8243622E-2,-9.759806E-1,-1.0630173E-1,1.1149316E-2,-1.2095405E0,1.7778741E-2,-6.0754765E-2,1.6161986E-2,2.7558943E-2,-3.787669E-1,-1.6789487E-2,-1.1328397E-2,-2.274449E-2,4.039244E-2,4.0261976E-2,-3.282994E-2,-3.2973047E-2,-3.315022E-2,-3.340176E-2,-1.4896704E-2,-2.4079366E-2,-1.2766096E-1,-5.6257374E-3,6.3755544E-4,-1.4452245E-2,3.339365E-3,-1.050189E-2,-2.638353E-2,-1.0161748E0,-8.187601E-1,-1.2081716E-1,-2.349816E-3,-2.4863586E-2,-8.503884E-2,6.624428E-3,-2.2959134E-3,-1.4826792E-1,1.6856545E-1,-2.405316E-1,-6.2395274E-3,-2.0764094E-2,-7.748184E-3,5.3180773E-3,2.306745E-2,7.0861937E-3,-6.2755145E-2,-2.405316E-1,2.509256E-3,-1.3550809E-2,1.3400325E-2,7.087709E-3,2.0872984E-2,9.787007E-3,2.44836E-3,1.3607493E-2,-2.4510793E-2,-3.287433E-2,-6.739555E-4,-2.0146595E-2],"split_indices":[13,13,3,13,14,3,3,3,0,18,25,8,5,5,5,8,10,14,14,18,25,0,10,0,8,8,0,9,0,5,6,3,5,18,25,20,18,25,22,18,25,0,0,3,3,0,10,5,0,3,3,0,0,0,0,3,3,0,20,14,25,0,0,22,25,25,18,0,14,18,0,20,14,0,0,0,0,0,3,0,0,0,0,0,10,8,0,0,0,0,18,0,0,22,22,0,22,0,0,25,25,0,20,0,14,0,0,20,0,0,0,0,0,0,0,0,0,0,0,14,0,0,0,0,0,0,22,22,20,0,19,14,0,0,18,25,18,0,0,0,0,0,0,20,18,0,0,0,0,0,0,0,0,0,0,0,0],"split_type":[0,0,0,0,0,0,0,0,0,0,0,0,0,0,0,0,0,0,0,0,0,0,0,0,0,0,0,0,0,0,0,0,0,0,0,0,0,0,0,0,0,0,0,0,0,0,0,0,0,0,0,0,0,0,0,0,0,0,0,0,0,0,0,0,0,0,0,0,0,0,0,0,0,0,0,0,0,0,0,0,0,0,0,0,0,0,0,0,0,0,0,0,0,0,0,0,0,0,0,0,0,0,0,0,0,0,0,0,0,0,0,0,0,0,0,0,0,0,0,0,0,0,0,0,0,0,0,0,0,0,0,0,0,0,0,0,0,0,0,0,0,0,0,0,0,0,0,0,0,0,0,0,0,0,0,0,0],"sum_hessian":[2.0977817E3,1.6390171E3,4.5876474E2,4.4254877E2,1.1964683E3,1.5114621E2,3.0761853E2,4.2753574E2,1.5013029E1,5.7058813E2,6.258802E2,6.1254845E1,8.989137E1,1.297329E2,1.7788564E2,2.480271E2,1.7950864E2,4.9166266E2,7.892544E1,5.17756E2,1.0812419E2,1.932715E1,4.1927692E1,2.882664E1,6.1064735E1,1.1509453E2,1.463837E1,1.6770105E2,1.0184588E1,2.0474228E2,4.3284824E1,7.047819E1,1.0903045E2,5.4451984E1,4.372107E2,2.1597277E1,5.732816E1,4.5233713E2,6.541885E1,3.1937403E1,7.618679E1,1.9837755E1,2.2089937E1,3.2751274E1,2.8313461E1,1.1173325E1,1.039212E2,1.552732E2,1.24278555E1,5.4546623E1,1.5019565E2,1.3544011E1,2.9740812E1,5.4481346E1,1.5996842E1,6.945432E1,3.957613E1,1.1123627E1,4.3328358E1,2.512173E1,4.1208896E2,1.0556554E1,1.1040722E1,3.4492283E1,2.283588E1,8.264066E1,3.6969647E2,1.2563182E1,5.2855667E1,2.1552042E1,1.038536E1,4.8147762E1,2.8039028E1,1.9594885E1,1.3156389E1,1.4645382E1,1.3668078E1,1.0929204E1,9.2992004E1,1.4673129E1,1.4060005E2,1.963116E1,3.4915462E1,6.206092E1,8.8134735E1,4.1341106E1,2.8113214E1,2.6043455E1,1.3532676E1,1.5775295E1,2.7553062E1,1.4552765E1,1.0568965E1,3.8645148E2,2.5637482E1,1.2300508E1,2.2191772E1,1.2761334E1,1.0074545E1,3.4927788E1,4.771288E1,1.58111725E1,3.5388528E2,1.114626E1,4.1709408E1,1.0394459E1,1.1157584E1,3.239016E1,1.5757603E1,1.1821752E1,1.6217278E1,4.797703E1,4.5014973E1,1.5204174E1,7.293056E1,3.0743233E1,1.0597874E1,1.1085034E1,1.6468027E1,3.7583463E2,1.0616847E1,1.0863706E1,1.4773775E1,1.1600139E1,1.0591634E1,1.1293271E1,2.3634516E1,2.3209932E1,2.4502947E1,1.01251745E1,3.437601E2,2.36775E1,1.8031908E1,1.0115419E1,2.2274742E1,3.0335355E2,7.248109E1,1.1591452E1,1.2043064E1,1.0848303E1,1.23616295E1,1.0409009E1,1.4093938E1,7.840027E1,2.6535983E2,1.2352174E1,1.1325327E1,1.1386505E1,1.0888237E1,2.6798868E2,3.536487E1,1.8523258E1,5.395783E1,6.0491425E1,1.7908846E1,1.702542E1,2.4833443E2],"tree_param":{"num_deleted":"0","num_feature":"28","num_nodes":"157","size_leaf_vector":"1"}},{"base_weights":[-5.6788675E-3,-5.813103E-1,2.1258383E0,-1.231289E0,1.4329938E0,3.085954E-2,2.1467164E0,-1.7502645E0,-9.8103505E-1,7.096887E-1,1.786107E0,2.1371567E0,2.1665976E0,-1.7552532E0,-2.9320091E-2,5.6199735E-1,-1.0583518E0,9.554927E-1,-5.825639E-1,2.0287333E0,1.5786877E0,2.151465E0,2.132621E0,2.1550615E0,2.183902E0,-1.7582016E0,-1.7505713E0,-3.3077154E-2,1.698641E0,-1.2011974E0,-3.8204467E-1,1.1572243E0,-1.205082E-2,5.0606662E-3,-2.584593E-2,2.0785685E0,2.878277E-2,1.0423574E0,1.7488344E0,4.062012E-2,2.1470299E0,2.1306367E0,4.034344E-2,2.170892E0,2.1495929E0,4.0565822E-2,2.1904879E0,-1.7608286E0,-1.750364E0,-3.286119E-2,-3.269261E-2,4.138011E-2,2.2767384E-2,-9.234066E-1,-1.4442525E0,-5.113361E-1,1.6389055E-2,1.3841516E0,6.2670285E-1,3.6096264E-2,2.0932608E0,2.5187623E-2,1.4513694E-2,1.872616E0,1.2271524E-2,3.9987374E-2,4.0253326E-2,4.029128E-2,2.128817E0,4.0390793E-2,4.0727858E-2,4.0374804E-2,2.1471477E0,4.106885E-2,4.078793E-2,-1.7648194E0,-1.7560881E0,-1.7465559E0,-3.2906815E-2,-1.3510982E0,-6.26292E-1,-4.4484013E-1,-1.5535706E0,-1.8546073E-1,-9.1574234E-1,1.5517237E0,1.0193071E-2,1.9885994E-2,4.791323E-3,3.7674356E-2,3.9271504E-2,1.931188E0,2.5511196E-2,2.1338491E0,2.1266868E0,2.1518137E0,3.9990216E-2,-1.762443E0,-3.322956E-2,-1.7536128E0,-3.304758E-2,-3.250938E-2,-1.7495345E0,-1.4810295E0,-1.1257163E0,-3.7858218E-1,-1.557715E0,3.3925043E-3,-2.2269724E-2,-1.6296107E0,-1.1878392E0,-1.823904E-2,-1.149135E-2,-7.4711074E-3,-1.1595191E0,1.6906118E0,2.1490892E-2,1.6736779E0,2.0549047E0,4.0042274E-2,2.131411E0,3.9713338E-2,3.988161E-2,4.005933E-2,4.030359E-2,-3.27055E-2,-1.7641091E0,-3.2670803E-2,-3.2813426E-2,-3.26029E-2,-3.2780528E-2,-1.2437627E0,-1.6060213E0,-7.321683E-1,-1.5249953E0,-2.0180255E-1,-2.7823493E-2,-2.2678303E-2,-1.6988541E0,-1.1057072E0,-1.7110021E0,-9.329167E-1,-1.5668515E0,-2.8834683E-1,1.5124069E-2,-8.498986E-1,-2.9285511E-2,1.8667927E0,2.6261307E-2,3.455953E-2,2.5319455E-2,3.9288364E-2,3.6307E-2,3.9712228E-2,3.9983623E-2,-3.2875866E-2,-3.3017274E-2,-2.6873145E-2,-1.8029682E-2,-2.5444768E-2,-3.1516727E-2,-4.109847E-3,-2.2138989E-2,-3.0754784E-2,-2.6544636E-2,-1.0464877E-2,9.583566E-3,-3.2431286E-2,-3.0659059E-2,-2.7338993E-2,-1.611547E-2,-2.3731152E-2,-3.243891E-2,-3.2609716E-2,-9.618176E-3,-2.7233876E-2,-3.101699E-2,-2.4732115E-4,-1.5873022E-2,-2.2218818E-2,-9.846757E-3,3.1790793E-2,3.7185993E-2],"categories":[],"categories_nodes":[],"categories_segments":[],"categories_sizes":[],"default_left":[0,0,0,0,0,0,0,0,0,0,0,0,0,0,0,0,0,0,0,0,0,0,0,0,0,0,0,0,0,0,0,0,0,0,0,0,0,0,0,0,0,0,0,0,0,0,0,0,0,0,0,0,0,0,0,0,0,0,0,0,0,0,0,0,0,0,0,0,0,0,0,0,0,0,0,0,0,0,0,0,0,0,0,0,0,0,0,0,0,0,0,0,0,0,0,0,0,0,0,0,0,0,0,0,0,0,0,0,0,0,0,0,0,0,0,0,0,0,0,0,0,0,0,0,0,0,0,0,0,0,0,0,0,0,0,0,0,0,0,0,0,0,0,0,0,0,0,0,0,0,0,0,0,0,0,0,0,0,0,0,0,0,0,0,0,0,0,0,0,0,0,0,0,0,0,0,0,0,0,0,0,0,0],"id":3,"left_children":[1,3,5,7,9,-1,11,13,15,17,19,21,23,25,-1,27,29,31,33,35,37,39,41,43,45,47,49,-1,51,53,55,57,-1,-1,-1,59,-1,61,63,-1,65,67,-1,69,71,-1,73,75,77,-1,-1,-1,-1,79,81,83,-1,85,87,-1,89,-1,-1,91,-1,-1,-1,-1,93,-1,-1,-1,95,-1,-1,97,99,101,-1,103,105,107,109,111,113,115,-1,-1,-1,-1,-1,117,-1,119,121,123,-1,125,-1,127,-1,-1,129,131,133,135,137,-1,-1,139,141,-1,143,-1,145,147,-1,149,151,-1,153,-1,-1,-1,-1,-1,155,-1,-1,-1,-1,157,159,161,163,165,-1,-1,167,169,171,173,175,177,-1,179,-1,181,-1,-1,-1,-1,-1,-1,-1,-1,-1,-1,-1,-1,-1,-1,-1,-1,-1,-1,-1,-1,-1,-1,-1,-1,-1,-1,-1,-1,-1,-1,-1,-1,-1,-1,-1],"loss_changes":[2.5450562E3,2.1382827E3,4.364502E0,1.6036597E2,1.0176404E2,0E0,7.93457E-2,3.618164E-1,9.938605E1,4.1517487E1,1.34730835E1,1.7700195E-2,2.6489258E-2,4.8828125E-3,0E0,1.0538747E2,7.663965E1,3.545745E1,1.4277446E1,3.0009155E0,1.3171295E1,6.072998E-3,1.0559082E-2,6.225586E-3,3.6621094E-3,4.272461E-3,2.4414062E-4,0E0,6.6225433E0,4.4222473E1,2.2523848E1,1.1740829E1,0E0,0E0,0E0,2.4017334E-1,0E0,2.8224983E0,1.4811005E1,0E0,2.0141602E-3,8.728027E-3,0E0,8.239746E-4,8.239746E-4,0E0,1.1138916E-3,2.8076172E-3,1.9378662E-3,0E0,0E0,0E0,0E0,3.8839294E1,3.816504E1,1.6533676E1,0E0,9.598206E0,4.735091E0,0E0,6.777954E-2,0E0,0E0,2.9227295E0,0E0,0E0,0E0,0E0,1.0986328E-3,0E0,0E0,0E0,6.866455E-4,0E0,0E0,2.5939941E-3,2.0141602E-3,2.746582E-4,0E0,3.6687164E0,4.1611847E1,1.612104E1,8.756592E0,9.558105E0,7.039879E0,3.1734314E0,0E0,0E0,0E0,0E0,0E0,2.8101501E0,0E0,4.272461E-4,2.4414062E-4,3.3569336E-4,0E0,1.0375977E-3,0E0,3.6621094E-4,0E0,0E0,9.918213E-5,2.3565216E0,7.199314E0,2.7973186E1,1.8382645E0,0E0,0E0,1.111554E1,5.2364426E0,0E0,1.2944515E1,0E0,4.80254E0,2.122795E0,0E0,1.6056824E0,3.1860352E-1,0E0,1.3885498E-3,0E0,0E0,0E0,0E0,0E0,4.119873E-4,0E0,0E0,0E0,0E0,1.4873848E0,1.0278931E0,5.3518934E0,2.8663635E-1,3.148021E1,0E0,0E0,5.6999207E-2,3.0475197E0,2.5183716E0,1.1008617E1,2.216034E-1,6.5759335E0,0E0,2.36825E0,0E0,5.3297424E-1,0E0,0E0,0E0,0E0,0E0,0E0,0E0,0E0,0E0,0E0,0E0,0E0,0E0,0E0,0E0,0E0,0E0,0E0,0E0,0E0,0E0,0E0,0E0,0E0,0E0,0E0,0E0,0E0,0E0,0E0,0E0,0E0,0E0,0E0,0E0],"parents":[2147483647,0,0,1,1,2,2,3,3,4,4,6,6,7,7,8,8,9,9,10,10,11,11,12,12,13,13,15,15,16,16,17,17,18,18,19,19,20,20,21,21,22,22,23,23,24,24,25,25,26,26,28,28,29,29,30,30,31,31,35,35,37,37,38,38,40,40,41,41,43,43,44,44,46,46,47,47,48,48,53,53,54,54,55,55,57,57,58,58,60,60,63,63,68,68,72,72,75,75,76,76,77,77,79,79,80,80,81,81,82,82,83,83,84,84,85,85,91,91,93,93,94,94,95,95,97,97,99,99,102,102,103,103,104,104,105,105,106,106,109,109,110,110,112,112,114,114,115,115,117,117,118,118,120,120,126,126,131,131,132,132,133,133,134,134,135,135,138,138,139,139,140,140,141,141,142,142,143,143,145,145,147,147],"right_children":[2,4,6,8,10,-1,12,14,16,18,20,22,24,26,-1,28,30,32,34,36,38,40,42,44,46,48,50,-1,52,54,56,58,-1,-1,-1,60,-1,62,64,-1,66,68,-1,70,72,-1,74,76,78,-1,-1,-1,-1,80,82,84,-1,86,88,-1,90,-1,-1,92,-1,-1,-1,-1,94,-1,-1,-1,96,-1,-1,98,100,102,-1,104,106,108,110,112,114,116,-1,-1,-1,-1,-1,118,-1,120,122,124,-1,126,-1,128,-1,-1,130,132,134,136,138,-1,-1,140,142,-1,144,-1,146,148,-1,150,152,-1,154,-1,-1,-1,-1,-1,156,-1,-1,-1,-1,158,160,162,164,166,-1,-1,168,170,172,174,176,178,-1,180,-1,182,-1,-1,-1,-1,-1,-1,-1,-1,-1,-1,-1,-1,-1,-1,-1,-1,-1,-1,-1,-1,-1,-1,-1,-1,-1,-1,-1,-1,-1,-1,-1,-1,-1,-1,-1],"split_conditions":[-1.9433123E-1,-7.752766E-2,-1.791353E-1,-2.7485135E-1,-7.222913E-2,3.085954E-2,-1.08328015E-1,9.2867094E-1,-2.556736E-1,-3.496679E-2,5.079387E-2,-5.839561E-2,-1.6111854E-1,-9.095305E-2,-2.9320091E-2,-1.08328015E-1,-4.3851174E-2,1.0452335E0,-4.559148E-1,-4.8014957E-2,-2.3621991E-2,-1.0029774E0,1.211905E0,-5.839561E-2,-9.994948E-2,8.170738E-1,-6.5173376E-1,-3.3077154E-2,-2.3778197E-1,-7.0141464E-2,-7.821987E-2,3.6680136E-2,-1.205082E-2,5.0606662E-3,-2.584593E-2,-6.975208E-2,2.878277E-2,8.7129824E-2,1.0897917E-1,4.062012E-2,1.2257509E-2,-1.6778153E-1,4.034344E-2,-2.0492004E-2,-8.1560844E-1,4.0565822E-2,5.9468806E-2,-1.291131E-1,-3.3786407E-1,-3.286119E-2,-3.269261E-2,4.138011E-2,2.2767384E-2,-8.087613E-2,-4.565633E-1,-1.630593E-1,1.6389055E-2,-8.570647E-2,-3.3094993E-1,3.6096264E-2,-9.184133E-1,2.5187623E-2,1.4513694E-2,8.458902E-1,1.2271524E-2,3.9987374E-2,4.0253326E-2,4.029128E-2,6.980433E-2,4.0390793E-2,4.0727858E-2,4.0374804E-2,1.9693439E-1,4.106885E-2,4.078793E-2,-3.1670025E-1,-2.8434584E-1,-8.6085325E-1,-3.2906815E-2,-8.149133E-2,2.7159609E-2,1.4325556E-1,-1.9094107E-1,-1.2403243E-1,-5.615667E-1,1.7369736E-2,1.0193071E-2,1.9885994E-2,4.791323E-3,3.7674356E-2,3.9271504E-2,3.739252E-3,2.5511196E-2,-7.082318E-1,-1.2635323E-1,-7.426017E-2,3.9990216E-2,-9.374784E-1,-3.322956E-2,-3.8865727E-1,-3.304758E-2,-3.250938E-2,-1.6778153E-1,-1.6935273E-1,-1.3422325E-1,8.458902E-1,-6.141591E-1,3.3925043E-3,-2.2269724E-2,-7.8355394E-2,4.1857496E-2,-1.823904E-2,-8.0049515E-2,-7.4711074E-3,-1.4694208E-1,-2.0051543E-2,2.1490892E-2,4.5024925E-1,-1.5700671E-1,4.0042274E-2,9.382023E-2,3.9713338E-2,3.988161E-2,4.005933E-2,4.030359E-2,-3.27055E-2,-4.0188468E-1,-3.2670803E-2,-3.2813426E-2,-3.26029E-2,-3.2780528E-2,-8.192648E-2,-5.914059E-1,-2.8846645E-1,-8.60843E-2,-7.913161E-2,-2.7823493E-2,-2.2678303E-2,-1.5144765E-1,-8.1404805E-2,-2.3778197E-1,1.9617135E-2,-5.444842E-1,2.0629223E-2,1.5124069E-2,-8.012204E-2,-2.9285511E-2,-6.375971E-1,2.6261307E-2,3.455953E-2,2.5319455E-2,3.9288364E-2,3.6307E-2,3.9712228E-2,3.9983623E-2,-3.2875866E-2,-3.3017274E-2,-2.6873145E-2,-1.8029682E-2,-2.5444768E-2,-3.1516727E-2,-4.109847E-3,-2.2138989E-2,-3.0754784E-2,-2.6544636E-2,-1.0464877E-2,9.583566E-3,-3.2431286E-2,-3.0659059E-2,-2.7338993E-2,-1.611547E-2,-2.3731152E-2,-3.243891E-2,-3.2609716E-2,-9.618176E-3,-2.7233876E-2,-3.101699E-2,-2.4732115E-4,-1.5873022E-2,-2.2218818E-2,-9.846757E-3,3.1790793E-2,3.7185993E-2],"split_indices":[17,4,17,17,4,0,14,16,17,5,12,17,22,14,0,14,12,2,2,5,4,21,21,17,14,22,16,0,16,12,4,12,0,0,0,4,0,12,4,0,21,14,0,21,20,0,20,14,17,0,0,0,0,4,16,5,0,5,2,0,6,0,0,2,0,0,0,0,17,0,0,0,17,0,0,17,17,21,0,4,5,21,16,6,2,2,0,0,0,0,0,4,0,21,14,14,0,21,0,17,0,0,14,12,5,2,2,0,0,4,19,0,4,0,5,12,0,6,5,0,21,0,0,0,0,0,17,0,0,0,0,4,2,2,6,4,0,0,12,4,16,19,21,12,0,4,0,6,0,0,0,0,0,0,0,0,0,0,0,0,0,0,0,0,0,0,0,0,0,0,0,0,0,0,0,0,0,0,0,0,0,0,0],"split_type":[0,0,0,0,0,0,0,0,0,0,0,0,0,0,0,0,0,0,0,0,0,0,0,0,0,0,0,0,0,0,0,0,0,0,0,0,0,0,0,0,0,0,0,0,0,0,0,0,0,0,0,0,0,0,0,0,0,0,0,0,0,0,0,0,0,0,0,0,0,0,0,0,0,0,0,0,0,0,0,0,0,0,0,0,0,0,0,0,0,0,0,0,0,0,0,0,0,0,0,0,0,0,0,0,0,0,0,0,0,0,0,0,0,0,0,0,0,0,0,0,0,0,0,0,0,0,0,0,0,0,0,0,0,0,0,0,0,0,0,0,0,0,0,0,0,0,0,0,0,0,0,0,0,0,0,0,0,0,0,0,0,0,0,0,0,0,0,0,0,0,0,0,0,0,0,0,0,0,0,0,0,0,0],"sum_hessian":[2.074264E3,1.6332053E3,4.410586E2,1.2347683E3,3.9843692E2,1.8606525E1,4.224521E2,4.0170776E2,8.330606E2,1.3070525E2,2.677317E2,2.8529138E2,1.3716069E2,3.9092398E2,1.0783794E1,3.9750313E1,7.933103E2,1.0981667E2,2.0888567E1,1.2339274E2,1.4433894E2,6.864742E1,2.1664397E2,8.231159E1,5.48491E1,2.3982426E2,1.5109972E2,1.3023946E1,2.6726366E1,6.5497095E2,1.3833934E2,9.752465E1,1.2292023E1,1.0112429E1,1.0776138E1,1.1196091E2,1.14318285E1,3.476267E1,1.0957627E2,1.1174733E1,5.747269E1,2.0172758E2,1.4916388E1,2.1115307E1,6.119629E1,1.8878801E1,3.5970295E1,1.795876E2,6.0236664E1,1.103653E1,1.4006319E2,1.2876129E1,1.3850238E1,3.0564557E2,3.4932535E2,1.2545859E2,1.2880754E1,6.83066E1,2.9218046E1,1.0208887E1,1.0175202E2,1.6153612E1,1.8609056E1,9.841979E1,1.115648E1,3.061512E1,2.685757E1,1.3178897E1,1.8854868E2,1.06887665E1,1.042654E1,1.0689447E1,5.050684E1,1.7355835E1,1.8614462E1,9.746728E1,8.212033E1,4.47808E1,1.5455862E1,1.2529083E2,1.8035475E2,3.444272E1,3.1488263E2,6.947505E1,5.598354E1,5.6929893E1,1.137671E1,1.3388791E1,1.5829256E1,1.0468827E1,9.1283195E1,8.822854E1,1.0191254E1,5.6024242E1,1.3252444E2,2.9598938E1,2.0907902E1,8.31965E1,1.4270771E1,6.885341E1,1.3266922E1,1.4175158E1,3.0605642E1,7.947366E1,4.5817165E1,1.424664E2,3.788835E1,1.8735254E1,1.5707466E1,2.6068283E2,5.419979E1,1.2527672E1,5.6947376E1,1.796638E1,3.8017162E1,4.229484E1,1.4635053E1,2.863305E1,5.959549E1,1.14463E1,4.457794E1,1.18082436E2,1.4442001E1,1.2442666E1,1.7156273E1,1.0285745E1,7.291076E1,2.4971992E1,4.3881413E1,1.6391312E1,1.4214331E1,2.7421871E1,5.2051792E1,2.307445E1,2.2742718E1,1.2290503E2,1.9561363E1,1.1027001E1,2.686135E1,3.505329E1,2.2562955E2,3.2404964E1,2.1794825E1,4.2586895E1,1.4360483E1,2.161532E1,1.6401842E1,2.6134743E1,1.6160097E1,1.8433987E1,1.0199064E1,4.1648697E1,1.7946793E1,2.6905188E1,1.7672754E1,3.0663305E1,4.2247456E1,1.6144997E1,1.1276876E1,1.2965092E1,3.9086704E1,1.0827964E1,1.2246485E1,1.0510865E1,1.2231853E1,8.18638E1,4.1041233E1,1.6361578E1,1.0499772E1,1.4184725E1,2.0868565E1,1.2261531E1,2.1336803E2,1.1008851E1,2.1396114E1,1.0050839E1,1.1743984E1,2.8579075E1,1.4007818E1,1.05373125E1,1.1078007E1,1.118966E1,1.4945083E1],"tree_param":{"num_deleted":"0","num_feature":"28","num_nodes":"183","size_leaf_vector":"1"}},{"base_weights":[1.5077807E-2,-5.730535E-1,2.0956318E0,-1.7281283E0,-1.4352609E-1,2.1372457E0,2.0755723E0,-1.7343541E0,-2.9199796E-2,3.366666E-1,-5.741948E-1,2.1459017E0,3.9043546E-2,2.0928664E0,2.0648098E0,-1.7295322E0,-1.7652721E0,5.400425E-1,-9.4067675E-1,6.9150746E-1,-6.239106E-1,2.157862E0,2.1255918E0,2.1139445E0,2.0873754E0,2.063735E0,3.886084E-2,-1.7256899E0,-1.7456777E0,-1.755E0,-3.340331E-2,-3.938902E-1,7.2286385E-1,-5.2095574E-1,-1.4181468E0,1.8672245E-2,6.507665E-3,-1.2844212E0,-5.192345E-1,2.1667411E0,2.1481652E0,2.1355827E0,2.113853E0,3.9698545E-2,3.9319344E-2,2.0922391E0,3.872071E-2,3.8770948E-2,2.0623538E0,-1.7206509E0,-1.7301447E0,-1.7320163E0,-1.758084E0,-3.2506235E-2,-3.305371E-2,1.09637575E-2,-6.70664E-1,9.471133E-2,8.6751443E-1,-2.054271E-2,-2.661157E-1,-3.205152E-2,-2.159347E-2,-1.4131709E0,-1.1512373E-2,-4.116904E-1,-1.0282037E0,4.0640466E-2,2.1599903E0,4.0268157E-2,3.9887436E-2,4.0095236E-2,3.973254E-2,3.9633602E-2,3.9349742E-2,3.9374642E-2,2.0892584E0,2.061309E0,3.875288E-2,-1.7173512E0,-1.7323226E0,-1.7210677E0,-1.7348924E0,-1.7269094E0,-3.2565627E-2,-3.2588314E-2,-1.7655586E0,-9.943403E-1,-4.6465844E-2,4.9176058E-1,-4.431949E-1,-7.6804524E-3,9.2290634E-1,-1.3198804E-2,4.9168954E-4,-1.573369E-2,-1.5343776E0,-1.1672863E0,-2.8164968E-1,-1.3117216E0,3.4987703E-3,4.0479593E-2,4.0230382E-2,2.0861819E0,3.9231583E-2,3.8633935E-2,3.8475554E-2,-1.7157822E0,-3.2230273E-2,-3.2284264E-2,-3.2491185E-2,-3.208662E-2,-3.225477E-2,-1.7326556E0,-3.258675E-2,-3.216538E-2,-3.2372903E-2,-3.282649E-2,-3.3200063E-2,-6.9058365E-1,-2.4788126E-2,6.936477E-3,-9.301119E-3,6.0171605E-4,7.1290773E-1,-1.1792005E-2,-3.0259304E-3,1.0599859E0,4.6972832E-1,-2.3904562E-2,-1.610071E0,-1.66728E-2,-2.28194E-2,-1.7574366E-2,-2.441298E-1,-1.14384545E-2,-1.5031418E0,3.9131463E-2,3.888519E-2,-3.199263E-2,-3.2117184E-2,-3.22913E-2,-1.7361009E0,-1.8166142E-2,-8.1195E-3,1.77194E-2,5.326943E-3,5.9744775E-1,1.2533634E0,6.901889E-1,4.0717665E-2,-2.5446212E-2,-1.6888415E0,-5.279945E-2,-4.075682E-1,-2.3018476E-2,-1.623259E0,-3.236805E-2,-3.2504484E-2,1.5010628E-2,-2.2427798E-3,2.4944361E-2,2.1269175E-3,8.311763E-3,2.471716E-2,-6.943247E-3,9.754174E-3,-3.038668E-2,-3.209058E-2,8.770293E-4,-1.6560296E-2,-1.0757874E-2,3.3902426E-3,-3.2157287E-2,-2.908149E-2],"categories":[],"categories_nodes":[],"categories_segments":[],"categories_sizes":[],"default_left":[0,0,0,0,0,0,0,0,0,0,0,0,0,0,0,0,0,0,0,0,0,0,0,0,0,0,0,0,0,0,0,0,0,0,0,0,0,0,0,0,0,0,0,0,0,0,0,0,0,0,0,0,0,0,0,0,0,0,0,0,0,0,0,0,0,0,0,0,0,0,0,0,0,0,0,0,0,0,0,0,0,0,0,0,0,0,0,0,0,0,0,0,0,0,0,0,0,0,0,0,0,0,0,0,0,0,0,0,0,0,0,0,0,0,0,0,0,0,0,0,0,0,0,0,0,0,0,0,0,0,0,0,0,0,0,0,0,0,0,0,0,0,0,0,0,0,0,0,0,0,0,0,0,0,0,0,0,0,0,0,0,0,0,0,0,0,0,0,0,0,0,0,0,0,0],"id":4,"left_children":[1,3,5,7,9,11,13,15,-1,17,19,21,-1,23,25,27,29,31,33,35,37,39,41,43,45,47,-1,49,51,53,-1,55,57,59,61,-1,-1,63,65,67,69,71,73,-1,-1,75,-1,-1,77,79,81,83,85,-1,-1,-1,87,89,91,-1,93,-1,-1,95,-1,97,99,-1,101,-1,-1,-1,-1,-1,-1,-1,103,105,-1,107,109,111,113,115,-1,-1,117,119,121,123,125,-1,127,-1,-1,-1,129,131,133,135,-1,-1,-1,137,-1,-1,-1,139,-1,-1,-1,-1,-1,141,-1,-1,-1,-1,-1,143,-1,-1,-1,-1,145,-1,-1,147,149,-1,151,-1,-1,-1,153,-1,155,-1,-1,-1,-1,-1,157,-1,-1,-1,-1,159,161,163,165,-1,167,169,171,-1,173,-1,-1,-1,-1,-1,-1,-1,-1,-1,-1,-1,-1,-1,-1,-1,-1,-1,-1],"loss_changes":[2.5369207E3,8.019297E2,3.8049316E-1,4.4995117E-1,2.4365994E2,6.011963E-2,5.6518555E-2,6.225586E-2,0E0,1.447184E2,3.908548E1,2.9663086E-2,0E0,1.2817383E-2,2.2583008E-3,2.2216797E-2,1.2680054E-2,8.205292E1,1.5333679E1,2.480853E0,4.1322098E1,5.92041E-3,4.6081543E-3,1.6555786E-3,5.9509277E-3,2.0141602E-3,0E0,6.1035156E-3,1.13220215E-2,7.820129E-3,0E0,2.1355053E1,3.6516983E1,6.0042934E0,2.7926636E0,0E0,0E0,7.033676E0,2.8238754E1,1.4953613E-3,2.7160645E-3,1.4801025E-3,3.8909912E-4,0E0,0E0,2.4108887E-3,0E0,0E0,1.2207031E-3,4.760742E-3,6.134033E-3,1.3122559E-3,3.189087E-3,0E0,0E0,0E0,1.23964E1,1.606623E1,2.3136322E1,0E0,3.6405053E0,0E0,0E0,4.7441254E0,0E0,4.184916E1,3.1012802E1,0E0,1.449585E-4,0E0,0E0,0E0,0E0,0E0,0E0,0E0,1.1291504E-3,9.765625E-4,0E0,7.9345703E-4,3.0517578E-4,4.7302246E-4,1.5563965E-3,1.373291E-4,0E0,0E0,1.7318726E-3,4.080345E0,3.9508936E0,4.3983994E0,1.6888657E0,0E0,1.9450317E1,0E0,0E0,0E0,1.0904694E0,9.3053436E-1,8.98509E0,9.770241E0,0E0,0E0,0E0,1.0070801E-3,0E0,0E0,0E0,4.272461E-4,0E0,0E0,0E0,0E0,0E0,6.5612793E-4,0E0,0E0,0E0,0E0,0E0,1.5229044E0,0E0,0E0,0E0,0E0,2.944003E0,0E0,0E0,2.1501312E1,6.8773155E0,0E0,8.513565E-1,0E0,0E0,0E0,1.0750877E1,0E0,1.8649445E0,0E0,0E0,0E0,0E0,0E0,4.5776367E-5,0E0,0E0,0E0,0E0,1.0475874E1,1.5803497E1,7.4557133E0,4.899722E0,0E0,5.897522E-2,1.3169314E1,1.8376627E1,0E0,2.587433E-1,0E0,0E0,0E0,0E0,0E0,0E0,0E0,0E0,0E0,0E0,0E0,0E0,0E0,0E0,0E0,0E0,0E0,0E0],"parents":[2147483647,0,0,1,1,2,2,3,3,4,4,5,5,6,6,7,7,9,9,10,10,11,11,13,13,14,14,15,15,16,16,17,17,18,18,19,19,20,20,21,21,22,22,23,23,24,24,25,25,27,27,28,28,29,29,31,31,32,32,33,33,34,34,37,37,38,38,39,39,40,40,41,41,42,42,45,45,48,48,49,49,50,50,51,51,52,52,56,56,57,57,58,58,60,60,63,63,65,65,66,66,68,68,76,76,77,77,79,79,80,80,81,81,82,82,83,83,86,86,87,87,88,88,89,89,90,90,92,92,96,96,97,97,98,98,99,99,103,103,107,107,113,113,119,119,124,124,127,127,128,128,130,130,134,134,136,136,142,142,147,147,148,148,149,149,150,150,152,152,153,153,154,154,156,156],"right_children":[2,4,6,8,10,12,14,16,-1,18,20,22,-1,24,26,28,30,32,34,36,38,40,42,44,46,48,-1,50,52,54,-1,56,58,60,62,-1,-1,64,66,68,70,72,74,-1,-1,76,-1,-1,78,80,82,84,86,-1,-1,-1,88,90,92,-1,94,-1,-1,96,-1,98,100,-1,102,-1,-1,-1,-1,-1,-1,-1,104,106,-1,108,110,112,114,116,-1,-1,118,120,122,124,126,-1,128,-1,-1,-1,130,132,134,136,-1,-1,-1,138,-1,-1,-1,140,-1,-1,-1,-1,-1,142,-1,-1,-1,-1,-1,144,-1,-1,-1,-1,146,-1,-1,148,150,-1,152,-1,-1,-1,154,-1,156,-1,-1,-1,-1,-1,158,-1,-1,-1,-1,160,162,164,166,-1,168,170,172,-1,174,-1,-1,-1,-1,-1,-1,-1,-1,-1,-1,-1,-1,-1,-1,-1,-1,-1,-1],"split_conditions":[-2.9904196E-1,-2.992875E-1,-2.8736985E-1,-3.0088338E-1,-1.0693689E-1,6.6014566E-2,-2.6368734E-1,3.3912737E-2,-2.9199796E-2,3.684086E-1,-1.3612456E0,-2.903317E-1,3.9043546E-2,-7.085615E-1,1.4543892E-1,-2.8921288E-1,7.4040025E-2,-1.6608475E-1,6.328978E-1,-1.5218775E0,-2.4863586E-2,-4.3851174E-2,-1.106708E-1,-5.5474248E-2,1.1748819E-1,-2.3407277E-1,3.886084E-2,-2.9288688E-1,-8.9059216E-1,-2.9179212E-1,-3.340331E-2,-8.653388E-1,-3.3511662E-1,-1.5586743E-1,-3.0738494E-1,1.8672245E-2,6.507665E-3,-1.3762622E-1,4.1857496E-2,-2.922613E-1,-2.9199424E-1,-2.890264E-1,-2.364916E-2,3.9698545E-2,3.9319344E-2,-2.8616926E-1,3.872071E-2,3.8770948E-2,1.444491E0,-4.3851174E-2,-6.78223E-1,-2.8301495E-1,-2.8764054E-1,-3.2506235E-2,-3.305371E-2,1.09637575E-2,-7.5654674E-1,-1.4122976E-1,-1.0078696E0,-2.054271E-2,2.4128391E-1,-3.205152E-2,-2.159347E-2,-6.5173376E-1,-1.1512373E-2,-1.05343565E-1,1.9113898E-1,4.0640466E-2,-1.1918387E-1,4.0268157E-2,3.9887436E-2,4.0095236E-2,3.973254E-2,3.9633602E-2,3.9349742E-2,3.9374642E-2,4.3045156E-2,-5.965426E-1,3.875288E-2,8.351528E-3,-5.4452427E-2,-8.275816E-1,-8.384661E-2,-3.1475538E-1,-3.2565627E-2,-3.2588314E-2,-1.0971527E-1,8.170738E-1,-9.290973E-2,-8.930039E-1,-4.0045527E-1,-7.6804524E-3,-1.3058521E-1,-1.3198804E-2,4.9168954E-4,-1.573369E-2,-1.9979514E-1,-2.4753469E-1,-4.1025183E-1,-1.9979514E-1,3.4987703E-3,4.0479593E-2,4.0230382E-2,-1.4552619E-1,3.9231583E-2,3.8633935E-2,3.8475554E-2,-2.9359546E-1,-3.2230273E-2,-3.2284264E-2,-3.2491185E-2,-3.208662E-2,-3.225477E-2,-2.9199424E-1,-3.258675E-2,-3.216538E-2,-3.2372903E-2,-3.282649E-2,-3.3200063E-2,-1.0922747E0,-2.4788126E-2,6.936477E-3,-9.301119E-3,6.0171605E-4,-4.2329633E-1,-1.1792005E-2,-3.0259304E-3,-4.5447683E-1,-1.5211366E-1,-2.3904562E-2,-9.5464516E-1,-1.66728E-2,-2.28194E-2,-1.7574366E-2,-1.5379514E-1,-1.14384545E-2,-7.279433E-2,3.9131463E-2,3.888519E-2,-3.199263E-2,-3.2117184E-2,-3.22913E-2,-1.4472307E-1,-1.8166142E-2,-8.1195E-3,1.77194E-2,5.326943E-3,6.596142E-2,1.4558886E0,-2.8033586E-2,2.677738E-1,-2.5446212E-2,-8.204802E-2,2.0741206E-1,1.0768727E-1,-2.3018476E-2,3.937591E-1,-3.236805E-2,-3.2504484E-2,1.5010628E-2,-2.2427798E-3,2.4944361E-2,2.1269175E-3,8.311763E-3,2.471716E-2,-6.943247E-3,9.754174E-3,-3.038668E-2,-3.209058E-2,8.770293E-4,-1.6560296E-2,-1.0757874E-2,3.3902426E-3,-3.2157287E-2,-2.908149E-2],"split_indices":[13,13,3,13,14,12,3,12,0,18,20,3,0,11,12,3,12,14,18,20,19,12,8,12,12,3,0,3,11,3,0,20,18,14,24,0,0,16,19,3,3,3,12,0,0,3,0,0,9,12,11,3,3,0,0,0,24,14,24,0,20,0,0,16,0,14,18,0,8,0,0,0,0,0,0,0,12,11,0,8,8,11,8,13,0,0,12,22,18,24,18,0,14,0,0,0,16,22,18,16,0,0,0,8,0,0,0,3,0,0,0,0,0,3,0,0,0,0,0,24,0,0,0,0,22,0,0,24,22,0,20,0,0,0,22,0,14,0,0,0,0,0,8,0,0,0,0,18,22,24,20,0,14,18,18,0,20,0,0,0,0,0,0,0,0,0,0,0,0,0,0,0,0,0,0],"split_type":[0,0,0,0,0,0,0,0,0,0,0,0,0,0,0,0,0,0,0,0,0,0,0,0,0,0,0,0,0,0,0,0,0,0,0,0,0,0,0,0,0,0,0,0,0,0,0,0,0,0,0,0,0,0,0,0,0,0,0,0,0,0,0,0,0,0,0,0,0,0,0,0,0,0,0,0,0,0,0,0,0,0,0,0,0,0,0,0,0,0,0,0,0,0,0,0,0,0,0,0,0,0,0,0,0,0,0,0,0,0,0,0,0,0,0,0,0,0,0,0,0,0,0,0,0,0,0,0,0,0,0,0,0,0,0,0,0,0,0,0,0,0,0,0,0,0,0,0,0,0,0,0,0,0,0,0,0,0,0,0,0,0,0,0,0,0,0,0,0,0,0,0,0,0,0],"sum_hessian":[2.073259E3,1.6163494E3,4.569097E2,4.381327E2,1.1782166E3,1.4860628E2,3.0830344E2,4.2221664E2,1.5916047E1,5.570782E2,6.211384E2,1.25649475E2,2.29568E1,1.1824924E2,1.900542E2,3.6526193E2,5.695472E1,4.805639E2,7.651427E1,2.3475643E1,5.976628E2,7.906791E1,4.6581566E1,2.4423977E1,9.3825264E1,1.7757426E2,1.2479939E1,2.950631E2,7.019882E1,3.9209846E1,1.7744875E1,7.8672E1,4.018919E2,4.071983E1,3.579444E1,1.2372737E1,1.1102907E1,8.175885E1,5.1590393E2,4.1251728E1,3.7816177E1,2.5145956E1,2.143561E1,1.1208918E1,1.3215059E1,7.060431E1,2.3220955E1,1.8973663E1,1.586006E2,1.3848871E2,1.565744E2,3.3421986E1,3.6776836E1,1.9062212E1,2.0147635E1,1.7315372E1,6.135663E1,7.5224785E1,3.266671E2,1.2450417E1,2.8269411E1,1.677399E1,1.9020452E1,6.855041E1,1.3208445E1,4.2591037E2,8.999357E1,1.8130453E1,2.3121275E1,2.4371572E1,1.3444607E1,1.1445857E1,1.3700099E1,1.07136E1,1.072201E1,1.1468741E1,5.9135567E1,1.4586761E2,1.2732978E1,1.07987686E2,3.0501024E1,5.379317E1,1.02781235E2,2.2908405E1,1.051358E1,1.2962836E1,2.3814E1,4.040474E1,2.0951887E1,4.3278954E1,3.194583E1,1.3564085E1,3.1310303E2,1.1281212E1,1.69882E1,1.200344E1,5.6546967E1,6.253751E1,3.6337286E2,7.2972336E1,1.7021238E1,1.1431486E1,1.1689789E1,4.5916615E1,1.321895E1,3.1963724E1,1.1390389E2,8.995863E1,1.8029053E1,1.877189E1,1.1729134E1,3.2347984E1,2.1445189E1,8.297019E1,1.9811047E1,1.2171721E1,1.0736684E1,1.3728193E1,1.0085805E1,2.1114513E1,1.9290226E1,1.0881407E1,1.007048E1,1.4060625E1,2.9218328E1,1.9146912E1,1.2798917E1,2.403888E2,7.271425E1,1.2949532E1,4.3597435E1,1.0293175E1,5.2244335E1,1.9572691E1,3.4380017E2,1.5679384E1,5.729295E1,1.6714062E1,2.9202555E1,4.4945305E1,4.5013325E1,3.730365E1,4.5666542E1,1.005045E1,1.1064063E1,1.8842812E1,1.0375517E1,7.087184E1,1.6951695E2,4.8031586E1,2.4682663E1,1.0509269E1,3.3088165E1,1.5838539E2,1.8541478E2,1.759377E1,3.9699177E1,2.3427174E1,2.2239367E1,5.506196E1,1.5809883E1,1.5816159E2,1.1355351E1,3.4614746E1,1.3416839E1,1.3294447E1,1.1388215E1,1.0467917E1,2.2620249E1,1.4145956E2,1.6925825E1,1.442184E2,4.119638E1,1.6066906E1,2.3632273E1],"tree_param":{"num_deleted":"0","num_feature":"28","num_nodes":"175","size_leaf_vector":"1"}},{"base_weights":[-1.5563123E-2,-5.7446355E-1,2.079138E0,-1.5460726E0,2.053501E0,2.7440881E-2,2.0936396E0,-6.874106E-1,-1.6289248E0,2.1022785E0,2.0355644E0,2.0896955E0,2.156401E0,-1.7231821E0,1.0310125E-1,-1.6891891E0,-1.0537775E0,2.1151938E0,2.083807E0,2.0567806E0,2.026935E0,4.027871E-2,2.0861692E0,4.073147E-2,3.9787628E-2,-3.24733E-2,-1.7185733E0,2.19305E0,-1.0712509E0,-1.929642E-2,-1.6967111E0,-1.7176386E0,-5.890782E-1,3.9770894E-2,2.1077263E0,2.095041E0,2.0683727E0,2.0531495E0,3.887819E-2,2.0387738E0,2.0238082E0,2.0830724E0,4.020867E-2,-3.2016866E-2,-3.2317992E-2,4.0697567E-2,4.125184E-2,-6.922114E-3,-1.421059E0,-1.729352E0,-1.6812351E0,-1.7142164E0,-3.2280408E-2,4.1431174E-2,-1.4119698E0,3.946814E-2,3.924488E-2,3.9289463E-2,3.9049935E-2,3.8518995E-2,3.8767926E-2,3.8677998E-2,2.0504115E0,3.822869E-2,3.7977025E-2,2.0226195E0,3.8132444E-2,2.1026695E0,2.0770054E0,-2.1386662E-2,-2.9865455E-2,-1.7343328E0,-1.7057856E0,-1.7112712E0,-1.6238308E0,-3.191906E-2,-3.21197E-2,-1.2693148E0,-3.0919986E-2,2.0526884E0,3.8134575E-2,2.0261855E0,2.0206132E0,2.10898E0,2.0866358E0,2.103632E0,2.0734816E0,-1.7254446E0,-1.7403363E0,-3.2002177E-2,-1.701225E0,-1.7053213E0,-1.7400799E0,-1.8449154E-2,-1.664183E0,-3.200994E-2,-1.9235063E-2,3.8531933E-2,2.050514E0,3.800517E-2,3.78183E-2,3.7915383E-2,3.773287E-2,2.1045332E0,3.9822225E-2,3.916559E-2,3.8740173E-2,3.95344E-2,3.9126515E-2,2.0719175E0,3.9275214E-2,-3.255891E-2,-1.7232629E0,-1.7443271E0,-1.7271206E0,-3.1870376E-2,-3.168304E-2,-1.6992488E0,-1.711067E0,-1.7185508E0,-1.7515687E0,-1.6945058E0,-1.4483335E0,2.0481074E0,3.8447905E-2,3.9498333E-2,2.0982382E0,2.0804613E0,2.0655382E0,-3.212014E-2,-3.2271933E-2,-3.251615E-2,-3.2699216E-2,-3.2182563E-2,-3.238979E-2,-3.16343E-2,-3.1812E-2,-3.2096412E-2,-3.1742346E-2,-3.188808E-2,-3.2283407E-2,-3.2602523E-2,-3.2910496E-2,-2.660237E-2,-3.198727E-2,-2.381086E-2,-3.049301E-2,3.839003E-2,3.819952E-2,3.933259E-2,3.9109897E-2,3.8807463E-2,3.9175823E-2,3.9046135E-2,3.8542405E-2],"categories":[],"categories_nodes":[],"categories_segments":[],"categories_sizes":[],"default_left":[0,0,0,0,0,0,0,0,0,0,0,0,0,0,0,0,0,0,0,0,0,0,0,0,0,0,0,0,0,0,0,0,0,0,0,0,0,0,0,0,0,0,0,0,0,0,0,0,0,0,0,0,0,0,0,0,0,0,0,0,0,0,0,0,0,0,0,0,0,0,0,0,0,0,0,0,0,0,0,0,0,0,0,0,0,0,0,0,0,0,0,0,0,0,0,0,0,0,0,0,0,0,0,0,0,0,0,0,0,0,0,0,0,0,0,0,0,0,0,0,0,0,0,0,0,0,0,0,0,0,0,0,0,0,0,0,0,0,0,0,0,0,0,0,0,0,0,0,0,0,0,0,0,0,0],"id":5,"left_children":[1,3,5,7,9,-1,11,13,15,17,19,21,23,25,27,29,31,33,35,37,39,-1,41,-1,-1,-1,43,45,47,-1,49,51,53,-1,55,57,59,61,-1,63,65,67,-1,-1,-1,-1,-1,-1,69,71,73,75,-1,-1,77,-1,-1,-1,-1,-1,-1,-1,79,-1,-1,81,-1,83,85,-1,-1,87,89,91,93,-1,-1,95,-1,97,-1,99,101,103,105,107,109,111,113,-1,115,117,119,-1,121,-1,-1,-1,123,-1,-1,-1,-1,125,-1,-1,-1,-1,-1,127,-1,-1,129,131,133,-1,-1,135,137,139,141,143,145,147,-1,-1,149,151,153,-1,-1,-1,-1,-1,-1,-1,-1,-1,-1,-1,-1,-1,-1,-1,-1,-1,-1,-1,-1,-1,-1,-1,-1,-1,-1],"loss_changes":[2.441285E3,4.2030005E3,3.8864746E0,8.549536E1,3.8806152E-1,0E0,1.0546875E-1,8.659E1,3.7988037E1,2.7648926E-2,5.871582E-2,9.338379E-2,1.525116E-2,2.5787354E-3,1.4720667E2,4.897461E0,3.2067505E1,6.2561035E-3,7.7056885E-3,7.4157715E-3,7.751465E-3,0E0,7.763672E-2,0E0,0E0,0E0,1.3427734E-3,3.8375854E-3,9.4128E0,0E0,4.9487305E-1,9.2315674E-4,1.4122711E2,0E0,7.324219E-4,2.593994E-4,1.0681152E-4,3.0517578E-3,0E0,1.3885498E-3,2.9296875E-3,4.260254E-2,0E0,0E0,0E0,0E0,0E0,0E0,1.2560692E0,3.6376953E-2,1.1466064E0,3.6621094E-4,0E0,0E0,1.6390991E0,0E0,0E0,0E0,0E0,0E0,0E0,0E0,6.713867E-4,0E0,0E0,5.493164E-4,0E0,7.965088E-3,2.5512695E-2,0E0,0E0,1.3305664E-2,1.2359619E-3,7.434082E-2,5.868347E0,0E0,0E0,3.171711E0,0E0,3.9672852E-4,0E0,1.6784668E-4,9.1552734E-5,5.340576E-3,2.281189E-3,2.960205E-3,1.0253906E-2,3.4179688E-3,7.598877E-3,0E0,2.975464E-4,1.2084961E-2,1.789856E-2,0E0,1.40625E0,0E0,0E0,0E0,3.0517578E-5,0E0,0E0,0E0,0E0,2.319336E-3,0E0,0E0,0E0,0E0,0E0,1.19018555E-2,0E0,0E0,9.765625E-4,2.1362305E-3,5.0354004E-4,0E0,0E0,3.1738281E-3,1.4892578E-2,2.319336E-3,2.5634766E-3,8.994751E-1,8.45665E-1,1.5258789E-5,0E0,0E0,2.4414062E-4,4.547119E-3,7.446289E-3,0E0,0E0,0E0,0E0,0E0,0E0,0E0,0E0,0E0,0E0,0E0,0E0,0E0,0E0,0E0,0E0,0E0,0E0,0E0,0E0,0E0,0E0,0E0,0E0,0E0,0E0],"parents":[2147483647,0,0,1,1,2,2,3,3,4,4,6,6,7,7,8,8,9,9,10,10,11,11,12,12,13,13,14,14,15,15,16,16,17,17,18,18,19,19,20,20,22,22,26,26,27,27,28,28,30,30,31,31,32,32,34,34,35,35,36,36,37,37,39,39,40,40,41,41,48,48,49,49,50,50,51,51,54,54,62,62,65,65,67,67,68,68,71,71,72,72,73,73,74,74,77,77,79,79,81,81,82,82,83,83,84,84,85,85,86,86,87,87,88,88,90,90,91,91,92,92,94,94,98,98,103,103,109,109,112,112,113,113,114,114,117,117,118,118,119,119,120,120,121,121,122,122,123,123,126,126,127,127,128,128],"right_children":[2,4,6,8,10,-1,12,14,16,18,20,22,24,26,28,30,32,34,36,38,40,-1,42,-1,-1,-1,44,46,48,-1,50,52,54,-1,56,58,60,62,-1,64,66,68,-1,-1,-1,-1,-1,-1,70,72,74,76,-1,-1,78,-1,-1,-1,-1,-1,-1,-1,80,-1,-1,82,-1,84,86,-1,-1,88,90,92,94,-1,-1,96,-1,98,-1,100,102,104,106,108,110,112,114,-1,116,118,120,-1,122,-1,-1,-1,124,-1,-1,-1,-1,126,-1,-1,-1,-1,-1,128,-1,-1,130,132,134,-1,-1,136,138,140,142,144,146,148,-1,-1,150,152,154,-1,-1,-1,-1,-1,-1,-1,-1,-1,-1,-1,-1,-1,-1,-1,-1,-1,-1,-1,-1,-1,-1,-1,-1,-1,-1],"split_conditions":[-1.9433123E-1,-2.9904196E-1,-1.8621054E-1,-2.3778197E-1,-7.752766E-2,2.7440881E-2,-1.9094107E-1,-2.7485135E-1,-1.9094107E-1,-7.930046E-2,-6.975208E-2,-1.9979514E-1,3.62594E-2,-2.3438068E-1,-2.3204489E-1,-7.743637E-1,-2.7485135E-1,-3.409181E-2,-3.3782184E-2,8.6112994E-1,-2.0893537E-1,4.027871E-2,3.684086E-1,4.073147E-2,3.9787628E-2,-3.24733E-2,-9.290973E-2,-2.6552817E-1,-8.0787015E-1,-1.929642E-2,-2.7485135E-1,-6.4606307E-4,-2.3204489E-1,3.9770894E-2,-8.012204E-2,-7.870066E-2,-3.365658E-2,-2.9216737E-1,3.887819E-2,-2.3621991E-2,1.0897917E-1,-6.3843715E-1,4.020867E-2,-3.2016866E-2,-3.2317992E-2,4.0697567E-2,4.125184E-2,-6.922114E-3,-6.022271E-1,3.684086E-1,-3.0002406E-1,-2.823594E-1,-3.2280408E-2,4.1431174E-2,4.1857496E-2,3.946814E-2,3.924488E-2,3.9289463E-2,3.9049935E-2,3.8518995E-2,3.8767926E-2,3.8677998E-2,-2.0893537E-1,3.822869E-2,3.7977025E-2,-6.805721E-4,3.8132444E-2,7.817029E-1,-1.2605505E-1,-2.1386662E-2,-2.9865455E-2,-5.9120566E-1,6.328978E-1,-7.752766E-2,-4.7148824E-2,-3.191906E-2,-3.21197E-2,1.9617135E-2,-3.0919986E-2,-4.938216E-2,3.8134575E-2,-1.2987725E-1,-4.9428023E-2,1.0274924E0,-9.0810555E-1,-1.6167514E-1,1.2552274E0,-1.4213116E0,8.170738E-1,-3.2002177E-2,7.235485E-1,-3.4097657E-2,-4.9468044E-2,-1.8449154E-2,-3.3758957E-2,-3.200994E-2,-1.9235063E-2,3.8531933E-2,-3.34375E-2,3.800517E-2,3.78183E-2,3.7915383E-2,3.773287E-2,2.6236473E-2,3.9822225E-2,3.916559E-2,3.8740173E-2,3.95344E-2,3.9126515E-2,-1.5211366E-1,3.9275214E-2,-3.255891E-2,-3.3511662E-1,-2.4290696E-2,-3.695858E-1,-3.1870376E-2,-3.168304E-2,-3.4237865E-2,1.0531192E-3,-3.371792E-2,-7.222913E-2,-2.6008698E-1,3.7984177E-2,-3.3752974E-2,3.8447905E-2,3.9498333E-2,-3.1510523E-1,-1.5379514E-1,-3.6091605E-1,-3.212014E-2,-3.2271933E-2,-3.251615E-2,-3.2699216E-2,-3.2182563E-2,-3.238979E-2,-3.16343E-2,-3.1812E-2,-3.2096412E-2,-3.1742346E-2,-3.188808E-2,-3.2283407E-2,-3.2602523E-2,-3.2910496E-2,-2.660237E-2,-3.198727E-2,-2.381086E-2,-3.049301E-2,3.839003E-2,3.819952E-2,3.933259E-2,3.9109897E-2,3.8807463E-2,3.9175823E-2,3.9046135E-2,3.8542405E-2],"split_indices":[17,13,17,16,4,0,16,17,16,4,4,16,18,18,17,19,17,1,1,7,13,0,18,0,0,0,18,17,16,0,17,18,17,0,4,4,1,13,0,4,4,22,0,0,0,0,0,0,16,18,13,17,0,0,19,0,0,0,0,0,0,0,13,0,0,4,0,17,17,0,0,22,18,4,0,0,0,19,0,0,0,13,10,21,22,17,22,20,22,0,22,1,10,0,0,0,0,0,1,0,0,0,0,17,0,0,0,0,0,22,0,0,18,22,17,0,0,1,0,1,4,17,0,1,0,0,18,22,20,0,0,0,0,0,0,0,0,0,0,0,0,0,0,0,0,0,0,0,0,0,0,0,0,0,0],"split_type":[0,0,0,0,0,0,0,0,0,0,0,0,0,0,0,0,0,0,0,0,0,0,0,0,0,0,0,0,0,0,0,0,0,0,0,0,0,0,0,0,0,0,0,0,0,0,0,0,0,0,0,0,0,0,0,0,0,0,0,0,0,0,0,0,0,0,0,0,0,0,0,0,0,0,0,0,0,0,0,0,0,0,0,0,0,0,0,0,0,0,0,0,0,0,0,0,0,0,0,0,0,0,0,0,0,0,0,0,0,0,0,0,0,0,0,0,0,0,0,0,0,0,0,0,0,0,0,0,0,0,0,0,0,0,0,0,0,0,0,0,0,0,0,0,0,0,0,0,0,0,0,0,0,0,0],"sum_hessian":[2.085268E3,1.6460698E3,4.3919815E2,1.2017572E3,4.4431268E2,1.0193566E1,4.2900458E2,1.05753426E2,1.0960038E3,1.1945043E2,3.2486224E2,4.0364453E2,2.5360046E1,4.5775578E1,5.9977848E1,9.920553E2,1.0394843E2,7.028561E1,4.916483E1,9.391436E1,2.3094789E2,2.0387087E1,3.8325745E2,1.3405874E1,1.1954173E1,1.0748193E1,3.5027386E1,2.1577341E1,3.8400505E1,1.1241179E1,9.8081415E2,4.2801888E1,6.114654E1,2.4907415E1,4.537819E1,2.843929E1,2.072554E1,8.168408E1,1.2230279E1,4.8229774E1,1.8271812E2,3.6609808E2,1.715937E1,2.4543259E1,1.0484125E1,1.0925005E1,1.0652337E1,1.2786646E1,2.5613857E1,3.154559E2,6.653582E2,3.2078686E1,1.0723205E1,1.38628E1,4.7283745E1,2.6922293E1,1.8455896E1,1.0723493E1,1.7715797E1,1.0489977E1,1.0235563E1,1.1235221E1,7.044886E1,2.1487822E1,2.6741951E1,1.7097409E2,1.17440405E1,8.653E1,2.7956808E2,1.0019733E1,1.5594125E1,2.6040543E2,5.505048E1,4.3680154E2,2.2855669E2,1.50478945E1,1.703079E1,2.9796726E1,1.7487019E1,5.645569E1,1.3993169E1,6.1487755E1,1.0948633E2,6.207475E1,2.4455246E1,3.266283E1,2.4690526E2,1.0500169E2,1.5540373E2,2.1378992E1,3.367149E1,3.62041E2,7.476054E1,1.3629945E1,2.1492674E2,1.044628E1,1.9350447E1,1.023923E1,4.621646E1,1.1746188E1,4.9741566E1,1.0246948E1,9.923938E1,5.1865173E1,1.0209577E1,1.3969365E1,1.048588E1,1.3955023E1,1.8707806E1,2.3418843E2,1.271683E1,1.173652E1,9.3265175E1,1.1934105E2,3.6062687E1,1.7945295E1,1.5726193E1,1.7604228E2,1.8599872E2,2.6023071E1,4.873746E1,1.8845161E2,2.6475124E1,3.4976677E1,1.1239784E1,2.0437305E1,3.142787E1,1.000862E2,1.3410223E2,4.7444256E1,4.582092E1,7.233325E1,4.7007797E1,2.1423222E1,1.4639465E1,6.5282394E1,1.1075988E2,1.17962875E2,6.803584E1,1.1644272E1,1.4378799E1,2.9596527E1,1.9140934E1,1.1540669E1,1.7691095E2,1.3608827E1,1.2866298E1,1.174007E1,2.3236605E1,1.2716585E1,1.8711285E1,8.362563E1,1.6460566E1,1.2475459E1,1.2162677E2],"tree_param":{"num_deleted":"0","num_feature":"28","num_nodes":"155","size_leaf_vector":"1"}},{"base_weights":[2.6399756E-3,-5.6385714E-1,2.0131228E0,-1.6829187E0,-1.505575E-1,2.058816E0,1.9988753E0,-1.6888407E0,-2.8958736E-2,2.868056E-1,-5.366564E-1,2.0723634E0,2.0467017E0,2.0200832E0,1.9897358E0,-1.6826475E0,-1.7108141E0,4.948296E-1,-9.946108E-1,-1.1308268E0,-4.3326432E-1,2.0789735E0,2.064983E0,2.030565E0,2.0624132E0,2.0115669E0,2.0387485E0,2.0049398E0,1.9867046E0,-1.6769519E0,-1.6891596E0,-1.7194141E0,-1.6912252E0,5.8926135E-1,-1.3798033E0,-1.4444044E0,-5.923083E-1,-1.2807913E0,-9.217764E-3,-3.1696153E-1,-9.850976E-1,3.8925868E-2,3.870198E-2,3.8405407E-2,3.871345E-2,3.8182102E-2,3.7770234E-2,3.8416773E-2,3.863885E-2,3.7960466E-2,2.0072398E0,2.0315523E0,3.8369935E-2,1.9987301E0,3.766636E-2,1.9856415E0,3.748501E-2,-3.157555E-2,-1.675472E0,-1.6935167E0,-3.123057E-2,-1.7095202E0,-1.7339255E0,-3.1472042E-2,-3.1802654E-2,-6.537584E-1,7.284699E-1,-2.230591E-2,-2.9037798E-2,-2.2574998E-2,-1.5900735E0,-3.0779263E-1,-2.1933192E-2,-1.2651738E-2,-1.4949476E0,-1.0298692E0,-1.924298E-1,-1.208081E0,1.8271393E-3,2.002944E0,3.7857953E-2,3.8089324E-2,3.78361E-2,3.7515324E-2,3.7182648E-2,3.7428357E-2,1.9843389E0,-3.1181986E-2,-1.6786554E0,-1.6813916E0,-1.6978105E0,-1.7173312E0,-3.1711698E-2,-3.2551184E-2,-3.21565E-2,-3.1397017E-3,-9.6503514E-1,8.7104017E-1,-1.9664198E-1,-3.132016E-2,-2.7748257E-2,-1.4458991E-2,-4.8360153E-4,-2.2189708E-2,-1.5889134E0,-4.5862515E-3,-1.2026525E0,-1.2383923E-1,-1.2182764E0,-6.944686E-1,-1.469894E0,1.9983313E0,3.765766E-2,3.704923E-2,1.9935313E0,-3.151868E-2,-3.1319577E-2,-3.1324334E-2,-3.1579893E-2,-1.7048635E0,-1.6927136E0,-3.1908117E-2,-3.229095E-2,-1.3617492E-2,-2.0745384E-2,-8.0656655E-2,9.4359684E-1,-1.9880291E-2,1.3890193E-1,-1.55158E0,-3.1337447E-2,-2.5615746E-2,-9.2757465E-3,1.13730125E-1,-3.3685762E-1,-1.60193E-2,-2.78135E-2,-5.0865873E-3,-1.7989514E-2,-1.6129386E0,-1.2720952E0,3.7412804E-2,3.723539E-2,3.7120417E-2,3.7373047E-2,-3.1737056E-2,-3.2079734E-2,-3.1449318E-2,-1.6949826E0,1.6714603E-2,-2.2779893E-2,1.0617806E0,4.62628E-1,6.271083E-1,-1.5686067E-2,-3.0389085E-2,-2.6872661E-2,-4.2094746E-1,3.5061625E-1,1.5248506E-2,-4.4534132E-1,-2.8790904E-2,-3.139083E-2,-1.8983323E-2,-2.8145494E-2,-3.160202E-2,-3.1769287E-2,1.4006527E-2,2.3663754E-2,1.4985128E-2,2.7479597E-3,3.6503018E-3,1.796126E-2,1.0790922E-2,-1.2655807E-2,9.458385E-3,-1.4899959E-2,-1.0100485E-2,9.178162E-3],"categories":[],"categories_nodes":[],"categories_segments":[],"categories_sizes":[],"default_left":[0,0,0,0,0,0,0,0,0,0,0,0,0,0,0,0,0,0,0,0,0,0,0,0,0,0,0,0,0,0,0,0,0,0,0,0,0,0,0,0,0,0,0,0,0,0,0,0,0,0,0,0,0,0,0,0,0,0,0,0,0,0,0,0,0,0,0,0,0,0,0,0,0,0,0,0,0,0,0,0,0,0,0,0,0,0,0,0,0,0,0,0,0,0,0,0,0,0,0,0,0,0,0,0,0,0,0,0,0,0,0,0,0,0,0,0,0,0,0,0,0,0,0,0,0,0,0,0,0,0,0,0,0,0,0,0,0,0,0,0,0,0,0,0,0,0,0,0,0,0,0,0,0,0,0,0,0,0,0,0,0,0,0,0,0,0,0,0,0,0,0,0,0,0,0,0,0,0,0],"id":6,"left_children":[1,3,5,7,9,11,13,15,-1,17,19,21,23,25,27,29,31,33,35,37,39,41,43,45,47,49,51,53,55,57,59,61,63,65,67,69,71,73,-1,75,77,-1,-1,-1,-1,-1,-1,-1,-1,-1,79,81,-1,83,-1,85,-1,-1,87,89,-1,91,93,-1,-1,95,97,-1,-1,-1,99,101,-1,-1,103,105,107,109,-1,111,-1,-1,-1,-1,-1,-1,113,-1,115,117,119,121,-1,-1,-1,-1,123,125,127,-1,-1,-1,-1,-1,129,-1,131,133,135,137,139,141,-1,-1,143,-1,-1,-1,-1,145,147,-1,-1,-1,-1,149,151,-1,153,155,-1,-1,-1,157,159,-1,-1,-1,-1,161,163,-1,-1,-1,-1,-1,-1,-1,165,-1,-1,167,169,171,-1,-1,-1,173,175,-1,177,-1,-1,-1,-1,-1,-1,-1,-1,-1,-1,-1,-1,-1,-1,-1,-1,-1,-1],"loss_changes":[2.3410032E3,7.416727E2,2.932129E-1,3.3972168E-1,1.9775473E2,1.6784668E-2,6.604004E-2,5.5786133E-2,0E0,1.4636769E2,3.8210434E1,1.6784668E-3,1.3580322E-2,1.5716553E-2,1.0314941E-2,1.1413574E-2,1.473999E-2,8.362643E1,1.38769E1,8.812653E0,3.400244E1,7.6293945E-5,8.010864E-4,2.4871826E-3,2.0599365E-4,5.493164E-3,2.7160645E-3,1.9989014E-3,3.4179688E-3,2.8076172E-3,1.0925293E-2,8.514404E-3,1.4953613E-3,7.782326E1,7.342911E-1,1.2446213E0,6.6996756E0,9.647026E0,0E0,3.8848026E1,2.2268883E1,0E0,0E0,0E0,0E0,0E0,0E0,0E0,0E0,0E0,4.058838E-3,2.2888184E-4,0E0,1.2741089E-3,0E0,3.7231445E-3,0E0,0E0,2.5939941E-3,5.7678223E-3,0E0,3.0059814E-3,2.166748E-3,0E0,0E0,6.8480396E0,5.3344116E1,0E0,0E0,0E0,2.0222473E-1,3.5723834E0,0E0,0E0,1.5899048E0,8.818817E0,2.6210943E1,1.0283478E1,0E0,2.0446777E-3,0E0,0E0,0E0,0E0,0E0,0E0,1.2207031E-3,0E0,1.4648438E-3,7.9345703E-4,2.6245117E-3,1.8234253E-3,0E0,0E0,0E0,0E0,9.475384E-1,2.419873E1,1.5720194E1,0E0,0E0,0E0,0E0,0E0,1.3881683E-1,0E0,6.3432617E0,1.7669977E1,2.2781525E0,2.9264488E0,1.4328079E0,3.0517578E-5,0E0,0E0,1.9836426E-4,0E0,0E0,0E0,0E0,2.2354126E-3,5.645752E-4,0E0,0E0,0E0,0E0,2.756997E1,1.8508759E1,0E0,1.8604214E1,2.5149536E-1,0E0,0E0,0E0,2.0907326E1,2.302788E1,0E0,0E0,0E0,0E0,1.4167786E-1,1.2754898E0,0E0,0E0,0E0,0E0,0E0,0E0,0E0,2.3651123E-4,0E0,0E0,1.6709412E1,6.8798933E0,3.7495604E0,0E0,0E0,0E0,1.2978959E1,2.0443298E1,0E0,1.5018913E1,0E0,0E0,0E0,0E0,0E0,0E0,0E0,0E0,0E0,0E0,0E0,0E0,0E0,0E0,0E0,0E0,0E0,0E0],"parents":[2147483647,0,0,1,1,2,2,3,3,4,4,5,5,6,6,7,7,9,9,10,10,11,11,12,12,13,13,14,14,15,15,16,16,17,17,18,18,19,19,20,20,21,21,22,22,23,23,24,24,25,25,26,26,27,27,28,28,29,29,30,30,31,31,32,32,33,33,34,34,35,35,36,36,37,37,39,39,40,40,50,50,51,51,53,53,55,55,58,58,59,59,61,61,62,62,65,65,66,66,70,70,71,71,74,74,75,75,76,76,77,77,79,79,86,86,88,88,89,89,90,90,91,91,96,96,97,97,98,98,104,104,106,106,107,107,108,108,109,109,110,110,111,111,114,114,119,119,120,120,125,125,126,126,128,128,129,129,133,133,134,134,139,139,140,140,148,148,151,151,152,152,153,153,157,157,158,158,160,160],"right_children":[2,4,6,8,10,12,14,16,-1,18,20,22,24,26,28,30,32,34,36,38,40,42,44,46,48,50,52,54,56,58,60,62,64,66,68,70,72,74,-1,76,78,-1,-1,-1,-1,-1,-1,-1,-1,-1,80,82,-1,84,-1,86,-1,-1,88,90,-1,92,94,-1,-1,96,98,-1,-1,-1,100,102,-1,-1,104,106,108,110,-1,112,-1,-1,-1,-1,-1,-1,114,-1,116,118,120,122,-1,-1,-1,-1,124,126,128,-1,-1,-1,-1,-1,130,-1,132,134,136,138,140,142,-1,-1,144,-1,-1,-1,-1,146,148,-1,-1,-1,-1,150,152,-1,154,156,-1,-1,-1,158,160,-1,-1,-1,-1,162,164,-1,-1,-1,-1,-1,-1,-1,166,-1,-1,168,170,172,-1,-1,-1,174,176,-1,178,-1,-1,-1,-1,-1,-1,-1,-1,-1,-1,-1,-1,-1,-1,-1,-1,-1,-1],"split_conditions":[-2.9904196E-1,-2.992875E-1,-3.3782184E-2,-3.0088338E-1,-1.0693689E-1,-3.4007102E-2,-3.2435585E-2,-3.3735447E-2,-2.8958736E-2,3.684086E-1,1.9617135E-2,-3.409181E-2,-1.3508564E-1,-9.107468E-2,-2.4109876E-1,-3.409181E-2,-7.321673E-2,7.113896E-1,-1.5087885E-1,-1.3762622E-1,4.1857496E-2,-2.8713414E-1,-1.3283691E-1,-3.391071E-2,-9.107468E-2,-1.6828428E-1,-1.1252835E-3,-2.9876966E-2,-1.727325E-2,-1.7475975E-1,2.7159609E-2,-3.2435585E-2,-3.2435585E-2,-4.440579E-1,-4.6565494E-1,5.302575E-1,7.1285963E-1,-5.565287E-1,-9.217764E-3,-1.05343565E-1,1.7773035E-1,3.8925868E-2,3.870198E-2,3.8405407E-2,3.871345E-2,3.8182102E-2,3.7770234E-2,3.8416773E-2,3.863885E-2,3.7960466E-2,-1.13432676E-1,-3.3560183E-2,3.8369935E-2,-1.7058985E-1,3.766636E-2,-1.7138548E-1,3.748501E-2,-3.157555E-2,-3.4237865E-2,-8.4625137E-1,-3.123057E-2,-2.1524522E-2,2.142714E-1,-3.1472042E-2,-3.1802654E-2,-6.142752E-1,9.901203E-1,-2.230591E-2,-2.9037798E-2,-2.2574998E-2,1.1404877E-1,4.060466E-1,-2.1933192E-2,-1.2651738E-2,-7.743637E-1,-1.4266784E-1,6.069374E-1,-8.368486E-2,1.8271393E-3,-1.146864E-1,3.7857953E-2,3.8089324E-2,3.78361E-2,3.7515324E-2,3.7182648E-2,3.7428357E-2,9.107285E-2,-3.1181986E-2,-1.6393968E-1,-1.310984E-1,-1.1918387E-1,-4.943504E-2,-3.1711698E-2,-3.2551184E-2,-3.21565E-2,-3.1397017E-3,-3.218331E-1,-1.0651999E0,-7.5654674E-1,-3.132016E-2,-2.7748257E-2,-1.4458991E-2,-4.8360153E-4,-2.2189708E-2,-1.6056974E-1,-4.5862515E-3,-9.290973E-2,-1.5379514E-1,3.8370367E-2,-1.9979514E-1,-1.3762622E-1,-1.4469971E-1,3.765766E-2,3.704923E-2,-1.6799144E-1,-3.151868E-2,-3.1319577E-2,-3.1324334E-2,-3.1579893E-2,-3.3937E-2,-4.9344085E-2,-3.1908117E-2,-3.229095E-2,-1.3617492E-2,-2.0745384E-2,-1.8684384E-1,-1.2766096E-1,-1.9880291E-2,1.9479483E0,-3.556934E-1,-3.1337447E-2,-2.5615746E-2,-9.2757465E-3,-1.4158107E-1,-2.897389E-1,-1.60193E-2,-2.78135E-2,-5.0865873E-3,-1.7989514E-2,2.4202073E-1,-5.6004263E-2,3.7412804E-2,3.723539E-2,3.7120417E-2,3.7373047E-2,-3.1737056E-2,-3.2079734E-2,-3.1449318E-2,-3.3937E-2,1.6714603E-2,-2.2779893E-2,-4.1001114E-1,-1.8145855E-1,-1.6577388E-1,-1.5686067E-2,-3.0389085E-2,-2.6872661E-2,-4.4017318E-1,2.1971647E-1,1.5248506E-2,1.1717074E-1,-2.8790904E-2,-3.139083E-2,-1.8983323E-2,-2.8145494E-2,-3.160202E-2,-3.1769287E-2,1.4006527E-2,2.3663754E-2,1.4985128E-2,2.7479597E-3,3.6503018E-3,1.796126E-2,1.0790922E-2,-1.2655807E-2,9.458385E-3,-1.4899959E-2,-1.0100485E-2,9.178162E-3],"split_indices":[13,13,1,13,14,1,1,1,0,18,19,1,8,8,13,1,5,26,14,16,19,13,8,1,8,5,8,8,5,8,5,1,1,26,22,18,18,16,0,14,18,0,0,0,0,0,0,0,0,0,5,1,0,5,0,5,0,0,1,11,0,8,8,0,0,22,22,0,0,0,26,24,0,0,19,18,26,14,0,8,0,0,0,0,0,0,8,0,5,5,8,10,0,0,0,0,18,24,24,0,0,0,0,0,18,0,18,22,24,16,16,5,0,0,5,0,0,0,0,1,10,0,0,0,0,18,14,0,22,19,0,0,0,26,18,0,0,0,0,19,18,0,0,0,0,0,0,0,1,0,0,24,22,24,0,0,0,18,18,0,22,0,0,0,0,0,0,0,0,0,0,0,0,0,0,0,0,0,0],"split_type":[0,0,0,0,0,0,0,0,0,0,0,0,0,0,0,0,0,0,0,0,0,0,0,0,0,0,0,0,0,0,0,0,0,0,0,0,0,0,0,0,0,0,0,0,0,0,0,0,0,0,0,0,0,0,0,0,0,0,0,0,0,0,0,0,0,0,0,0,0,0,0,0,0,0,0,0,0,0,0,0,0,0,0,0,0,0,0,0,0,0,0,0,0,0,0,0,0,0,0,0,0,0,0,0,0,0,0,0,0,0,0,0,0,0,0,0,0,0,0,0,0,0,0,0,0,0,0,0,0,0,0,0,0,0,0,0,0,0,0,0,0,0,0,0,0,0,0,0,0,0,0,0,0,0,0,0,0,0,0,0,0,0,0,0,0,0,0,0,0,0,0,0,0,0,0,0,0,0,0],"sum_hessian":[2.0554355E3,1.6035896E3,4.5184598E2,4.3251077E2,1.1710787E3,1.07395004E2,3.44451E2,4.1405402E2,1.845675E1,5.490869E2,6.219919E2,5.068408E1,5.671093E1,1.0372142E2,2.4072955E2,3.230236E2,9.103043E1,4.7239832E2,7.668861E1,9.219076E1,5.298011E2,2.6709429E1,2.3974648E1,2.7989174E1,2.8721756E1,7.123793E1,3.2483486E1,3.9996246E1,2.007333E2,1.7234256E2,1.5068103E2,6.324729E1,2.7783146E1,4.4974332E2,2.2654999E1,3.6206974E1,4.0481636E1,7.463237E1,1.7558386E1,4.375786E2,9.222252E1,1.6472342E1,1.0237087E1,1.0491538E1,1.3483109E1,1.1243622E1,1.674555E1,1.3988529E1,1.4733226E1,1.2496097E1,5.8741837E1,2.1991642E1,1.0491845E1,2.5748798E1,1.4247449E1,1.9048459E2,1.0248719E1,1.7392908E1,1.5494965E2,1.2063918E2,3.0041847E1,3.761987E1,2.5627422E1,1.7364271E1,1.0418874E1,4.5294987E1,4.044483E2,1.0970628E1,1.1684372E1,1.381768E1,2.2389294E1,2.7185173E1,1.3296462E1,1.954532E1,5.5087048E1,6.5070076E1,3.725085E2,7.6475204E1,1.574731E1,4.7995678E1,1.07461605E1,1.0244629E1,1.1747012E1,1.224954E1,1.3499259E1,1.2999711E1,1.7748488E2,5.139529E1,1.0355436E2,3.156832E1,8.907086E1,2.285669E1,1.476318E1,1.5404724E1,1.0222698E1,1.7691017E1,2.760397E1,3.5044135E2,5.400697E1,1.2272901E1,1.0116392E1,1.0244786E1,1.6940386E1,1.2903173E1,4.2183876E1,1.1746216E1,5.3323856E1,3.4916287E2,2.3345657E1,2.5821165E1,5.065404E1,3.5248535E1,1.2747142E1,1.5648618E2,2.0998701E1,2.1724566E1,8.182979E1,2.0697989E1,1.087033E1,3.7339684E1,5.173118E1,1.2373805E1,1.0482884E1,1.0519226E1,1.7084743E1,2.482476E1,3.2561658E2,1.5063439E1,3.8943527E1,2.9666828E1,1.2517047E1,4.3052998E1,1.0270857E1,1.6506912E2,1.8409375E2,1.0002554E1,1.3343103E1,1.0036379E1,1.5784786E1,2.9394857E1,2.1259184E1,1.9499084E1,1.5749451E1,1.0749325E1,1.0249377E1,2.4937754E1,1.2401932E1,1.0127506E1,4.1603672E1,1.3371446E1,1.1453314E1,2.6138806E2,6.4228546E1,2.5981024E1,1.2962504E1,1.7839138E1,1.1827691E1,5.0679607E1,1.1438951E2,1.5830737E1,1.6826302E2,1.4215882E1,1.5178975E1,1.016264E1,1.1096545E1,2.5617527E1,1.5986144E1,1.035865E2,1.5780154E2,3.094096E1,3.3287582E1,1.1338321E1,1.4642703E1,1.0356621E1,4.0322987E1,1.0073325E2,1.36562605E1,1.5272371E2,1.5539308E1],"tree_param":{"num_deleted":"0","num_feature":"28","num_nodes":"179","size_leaf_vector":"1"}},{"base_weights":[-1.41572505E-2,-5.769481E-1,1.9761019E0,-1.2157985E0,9.327946E-1,2.0174766E0,1.9620229E0,-1.6670856E0,-9.430315E-1,1.2610168E0,-7.208976E-1,2.0274565E0,2.000931E0,1.9813169E0,1.9535786E0,-1.6626105E0,-1.6960582E0,-1.2441853E0,-3.004471E-1,3.953186E-1,1.5614501E0,-1.5322872E0,1.4128105E-2,2.0131226E0,2.0333936E0,3.703559E-2,2.015497E0,1.9766456E0,3.7700355E-2,1.9630623E0,1.9492471E0,-1.6562539E0,-1.6681392E0,-1.6788617E0,-1.7076693E0,-7.218894E-1,-1.5261751E0,3.497582E-1,-5.8847106E-1,1.011446E0,-1.0634568E0,1.6255466E0,9.955011E-3,-3.1467676E-2,-1.4003519E0,1.828748E-2,-8.526156E-1,3.7764456E-2,3.7451357E-2,3.8184565E-2,3.7863288E-2,3.753948E-2,3.7813567E-2,1.9721501E0,1.9914194E0,1.968236E0,1.9581487E0,1.9482416E0,3.659856E-2,-1.6508691E0,-1.6596135E0,-1.6604158E0,-1.6732967E0,-3.1229503E-2,-3.153842E-2,-3.170862E-2,-3.204683E-2,-1.4856989E0,6.675497E-1,-1.6030178E0,-1.0946919E0,5.197006E-2,6.8944204E-1,1.1484963E-2,-7.615313E-1,1.3180035E0,-5.2590445E-3,-2.51507E-2,-1.1901058E-2,1.8035961E0,1.2622064E0,-2.800103E-2,-2.4322879E-2,-2.4372596E-2,-8.42785E-3,1.9690824E0,3.7052676E-2,3.7432477E-2,3.6976047E-2,3.6960006E-2,3.6645446E-2,3.6528774E-2,3.6725707E-2,3.6476616E-2,3.6369715E-2,-1.6490294E0,-3.099802E-2,-3.1269133E-2,-1.6580908E0,-1.6580135E0,-3.121889E-2,-1.6705209E0,-1.679718E0,-3.99772E-3,-1.6616528E0,1.2502223E0,-1.7395486E-1,-1.7083429E0,-1.5151519E0,5.8551338E-3,-1.545633E0,1.2719929E-2,-3.8024524E-1,2.2478707E-3,9.8647004E-1,3.7776954E-3,-8.7631834E-1,1.8223037E0,7.09251E-1,1.6595095E0,1.9655025E0,-2.5853855E-3,1.5676047E0,3.6965653E-2,3.6736604E-2,-3.0941097E-2,-3.0777628E-2,-1.655995E0,-3.1161336E-2,-1.6562556E0,-3.1113222E-2,-3.1077402E-2,-1.6727049E0,-1.6745707E0,-3.1564787E-2,-2.5455136E-2,-1.700202E0,3.4301523E-2,1.51577005E-2,-2.0153577E-2,9.814368E-3,-1.7130003E0,-3.1190492E-2,-1.109158E0,-1.6180263E0,-2.4584379E-2,-1.6391451E0,-1.1673612E-2,-2.7431468E-3,1.6264085E-2,2.0697178E-2,-1.0071884E0,4.5004985E-3,2.001956E0,2.7296342E-2,1.8469218E-2,1.0043149E-2,1.894638E0,8.4491875E-3,2.0039115E0,1.8752203E0,1.8794611E-2,1.6698462E0,-3.0974034E-2,-3.086129E-2,-3.0905094E-2,-3.105776E-2,-3.1216234E-2,-3.1342126E-2,-3.1179348E-2,-3.1381734E-2,-1.6912953E0,-1.7065146E0,-1.7168078E0,-3.1542983E-2,-1.4888519E-2,-3.0233651E-2,-2.5510991E-2,-1.6444052E0,-2.9590817E-2,-3.1355362E-2,-1.1556323E0,4.665526E-3,3.850252E-2,3.6299963E-2,1.9400437E0,2.9319022E-2,2.0203605E0,3.596414E-2,3.6458813E-2,3.2859337E-2,2.6395561E-2,1.7677027E0,-3.1427305E-2,-3.1668153E-2,-3.1957783E-2,-3.166839E-2,-3.18498E-2,-3.2226246E-2,-2.7133955E-2,-3.117954E-2,-2.4646157E-2,-1.2430662E-2,3.413665E-2,3.6753424E-2,3.830581E-2,3.7605908E-2,3.6128763E-2,2.8716158E-2],"categories":[],"categories_nodes":[],"categories_segments":[],"categories_sizes":[],"default_left":[0,0,0,0,0,0,0,0,0,0,0,0,0,0,0,0,0,0,0,0,0,0,0,0,0,0,0,0,0,0,0,0,0,0,0,0,0,0,0,0,0,0,0,0,0,0,0,0,0,0,0,0,0,0,0,0,0,0,0,0,0,0,0,0,0,0,0,0,0,0,0,0,0,0,0,0,0,0,0,0,0,0,0,0,0,0,0,0,0,0,0,0,0,0,0,0,0,0,0,0,0,0,0,0,0,0,0,0,0,0,0,0,0,0,0,0,0,0,0,0,0,0,0,0,0,0,0,0,0,0,0,0,0,0,0,0,0,0,0,0,0,0,0,0,0,0,0,0,0,0,0,0,0,0,0,0,0,0,0,0,0,0,0,0,0,0,0,0,0,0,0,0,0,0,0,0,0,0,0,0,0,0,0,0,0,0,0,0,0,0,0,0,0,0,0,0,0,0,0,0,0,0,0,0,0,0,0,0,0],"id":7,"left_children":[1,3,5,7,9,11,13,15,17,19,21,23,25,27,29,31,33,35,37,39,41,43,45,47,49,-1,51,53,-1,55,57,59,61,63,65,67,69,71,73,75,77,79,-1,-1,81,-1,83,-1,-1,-1,-1,-1,-1,85,87,89,91,93,-1,95,97,99,101,-1,-1,-1,-1,103,105,107,109,111,113,-1,115,117,-1,-1,-1,119,121,-1,-1,-1,-1,123,-1,-1,-1,-1,-1,-1,-1,-1,-1,125,-1,-1,127,129,-1,131,133,-1,135,137,139,141,143,-1,145,-1,147,-1,149,-1,151,153,155,157,159,-1,161,-1,-1,-1,-1,163,-1,165,-1,-1,167,169,-1,-1,171,-1,-1,-1,-1,173,-1,175,177,-1,179,-1,-1,-1,-1,181,-1,183,-1,-1,-1,185,-1,187,189,-1,191,-1,-1,-1,-1,-1,-1,-1,-1,193,195,197,-1,-1,-1,-1,199,-1,-1,201,-1,-1,-1,203,-1,205,-1,-1,-1,-1,207,-1,-1,-1,-1,-1,-1,-1,-1,-1,-1,-1,-1,-1,-1,-1,-1],"loss_changes":[2.3261648E3,1.5614795E3,2.6586914E-1,1.4003162E2,2.6127765E2,1.8432617E-2,5.505371E-2,5.493164E-2,1.3720923E2,1.04463196E2,4.7543938E1,5.3710938E-3,1.1077881E-2,1.7028809E-2,8.972168E-3,1.26953125E-2,1.0910034E-2,7.110376E1,4.2372288E1,9.300587E1,1.9658264E1,7.597046E-1,3.4975727E1,7.247925E-4,2.7923584E-3,0E0,5.0354004E-4,5.3710938E-3,0E0,1.1901855E-3,9.1552734E-4,2.5939941E-3,7.385254E-3,1.0147095E-3,2.1896362E-3,1.7963565E2,1.039447E1,7.025938E0,3.2650246E1,2.883593E1,3.7049713E0,1.8157532E1,0E0,0E0,1.9622803E-1,0E0,3.9980602E0,0E0,0E0,0E0,0E0,0E0,0E0,1.7089844E-3,2.4490356E-3,1.7242432E-3,1.0681152E-4,1.8310547E-4,0E0,5.0354004E-4,1.739502E-3,1.4801025E-3,1.5869141E-3,0E0,0E0,0E0,0E0,2.4439987E1,2.9440224E1,2.4622803E0,3.0093208E1,1.0060238E1,5.4849043E0,0E0,1.51647415E1,1.8053474E1,0E0,0E0,0E0,4.393799E0,3.948456E1,0E0,0E0,0E0,0E0,6.866455E-4,0E0,0E0,0E0,0E0,0E0,0E0,0E0,0E0,0E0,1.0681152E-4,0E0,0E0,1.4648438E-3,3.2043457E-4,0E0,7.4768066E-4,1.2664795E-3,0E0,1.1059875E0,9.121094E0,1.5542617E1,2.1362305E-2,6.059265E0,0E0,7.707367E-1,0E0,1.2523599E0,0E0,2.997532E-1,0E0,1.7909721E1,2.086731E0,1.2776861E0,2.8292847E1,3.0688477E-1,0E0,4.351181E0,0E0,0E0,0E0,0E0,1.0681152E-4,0E0,1.373291E-4,0E0,0E0,4.5776367E-5,1.5258789E-4,0E0,0E0,4.2419434E-3,0E0,0E0,0E0,0E0,9.5825195E-3,0E0,4.662487E0,7.706604E-1,0E0,5.4740906E-2,0E0,0E0,0E0,0E0,2.0458496E1,0E0,7.387543E-2,0E0,0E0,0E0,1.2316589E0,0E0,7.998657E-2,2.3440552E-1,0E0,1.6118622E0,0E0,0E0,0E0,0E0,0E0,0E0,0E0,0E0,6.713867E-4,1.739502E-3,8.575439E-3,0E0,0E0,0E0,0E0,4.9291992E-1,0E0,0E0,7.864685E0,0E0,0E0,0E0,2.2418213E-1,0E0,1.0757446E-2,0E0,0E0,0E0,0E0,1.7785034E0,0E0,0E0,0E0,0E0,0E0,0E0,0E0,0E0,0E0,0E0,0E0,0E0,0E0,0E0,0E0,0E0],"parents":[2147483647,0,0,1,1,2,2,3,3,4,4,5,5,6,6,7,7,8,8,9,9,10,10,11,11,12,12,13,13,14,14,15,15,16,16,17,17,18,18,19,19,20,20,21,21,22,22,23,23,24,24,26,26,27,27,29,29,30,30,31,31,32,32,33,33,34,34,35,35,36,36,37,37,38,38,39,39,40,40,41,41,44,44,46,46,53,53,54,54,55,55,56,56,57,57,59,59,60,60,61,61,62,62,67,67,68,68,69,69,70,70,71,71,72,72,74,74,75,75,79,79,80,80,85,85,95,95,98,98,99,99,101,101,102,102,104,104,105,105,106,106,107,107,108,108,110,110,112,112,114,114,116,116,117,117,118,118,119,119,120,120,122,122,127,127,129,129,132,132,133,133,136,136,141,141,143,143,144,144,146,146,151,151,153,153,157,157,159,159,160,160,162,162,171,171,172,172,173,173,178,178,181,181,185,185,187,187,192,192],"right_children":[2,4,6,8,10,12,14,16,18,20,22,24,26,28,30,32,34,36,38,40,42,44,46,48,50,-1,52,54,-1,56,58,60,62,64,66,68,70,72,74,76,78,80,-1,-1,82,-1,84,-1,-1,-1,-1,-1,-1,86,88,90,92,94,-1,96,98,100,102,-1,-1,-1,-1,104,106,108,110,112,114,-1,116,118,-1,-1,-1,120,122,-1,-1,-1,-1,124,-1,-1,-1,-1,-1,-1,-1,-1,-1,126,-1,-1,128,130,-1,132,134,-1,136,138,140,142,144,-1,146,-1,148,-1,150,-1,152,154,156,158,160,-1,162,-1,-1,-1,-1,164,-1,166,-1,-1,168,170,-1,-1,172,-1,-1,-1,-1,174,-1,176,178,-1,180,-1,-1,-1,-1,182,-1,184,-1,-1,-1,186,-1,188,190,-1,192,-1,-1,-1,-1,-1,-1,-1,-1,194,196,198,-1,-1,-1,-1,200,-1,-1,202,-1,-1,-1,204,-1,206,-1,-1,-1,-1,208,-1,-1,-1,-1,-1,-1,-1,-1,-1,-1,-1,-1,-1,-1,-1,-1],"split_conditions":[-2.9904196E-1,-1.140503E-1,-3.3782184E-2,-3.0002406E-1,3.684086E-1,-3.3937E-2,-3.2435585E-2,3.031512E-2,-1.6652025E-1,1.0487839E-1,5.402036E-1,-9.563614E-1,-3.7322515E-1,4.8489198E-1,-1.5197425E-1,-3.4097657E-2,-3.3735447E-2,-2.897389E-1,3.1003121E-2,3.62594E-2,-1.9094107E-1,2.0320275E-1,6.328978E-1,-3.408305E-2,-3.409181E-2,3.703559E-2,-9.7237065E-2,-4.7645397E-2,3.7700355E-2,1.2246951E-1,5.3684507E-3,-3.4237865E-2,-4.9412385E-2,-3.398958E-2,-3.2435585E-2,-6.576191E-1,-1.852609E-1,-1.2366428E-1,-3.5282782E-1,2.0045358E-1,2.197791E-2,6.596142E-2,9.955011E-3,-3.1467676E-2,5.521808E-1,1.828748E-2,1.1939181E0,3.7764456E-2,3.7451357E-2,3.8184565E-2,3.7863288E-2,3.753948E-2,3.7813567E-2,3.6680136E-2,-2.5251552E-1,-2.6430058E-1,5.5561103E-2,5.487812E-2,3.659856E-2,-4.8002273E-2,-1.1081539E0,-3.105815E-1,-3.3782184E-2,-3.1229503E-2,-3.153842E-2,-3.170862E-2,-3.204683E-2,-6.341899E-1,-3.573989E-1,-4.1900182E-1,-1.9747521E-1,-2.4816549E-1,-3.173486E-1,1.1484963E-2,-2.9305652E-1,-2.2610044E-1,-5.2590445E-3,-2.51507E-2,-1.1901058E-2,-1.2452838E-2,2.8890082E-1,-2.800103E-2,-2.4322879E-2,-2.4372596E-2,-8.42785E-3,-3.371792E-2,3.7052676E-2,3.7432477E-2,3.6976047E-2,3.6960006E-2,3.6645446E-2,3.6528774E-2,3.6725707E-2,3.6476616E-2,3.6369715E-2,-8.450469E-1,-3.099802E-2,-3.1269133E-2,-4.3851174E-2,-5.8795128E-2,-3.121889E-2,-3.1512368E-1,-3.109498E-1,-3.99772E-3,-1.4213116E0,-4.18908E-1,-8.653388E-1,3.684086E-1,-1.5379514E-1,5.8551338E-3,-1.4266784E-1,1.2719929E-2,-1.843937E-1,2.2478707E-3,-2.0680042E-1,3.7776954E-3,3.0763742E-1,-2.0734292E-1,-2.0984647E-1,-1.638342E-2,-5.6004263E-2,-2.5853855E-3,4.0637773E-1,3.6965653E-2,3.6736604E-2,-3.0941097E-2,-3.0777628E-2,-2.9739016E-1,-3.1161336E-2,-3.3752974E-2,-3.1113222E-2,-3.1077402E-2,-3.6932677E-2,-4.8996665E-2,-3.1564787E-2,-2.5455136E-2,-8.878264E-1,3.4301523E-2,1.51577005E-2,-2.0153577E-2,9.814368E-3,9.901203E-1,-3.1190492E-2,-1.3884409E-1,-3.4755167E-2,-2.4584379E-2,-8.325399E-2,-1.1673612E-2,-2.7431468E-3,1.6264085E-2,2.0697178E-2,1.469758E-1,4.5004985E-3,-7.9231906E-1,2.7296342E-2,1.8469218E-2,1.0043149E-2,4.643E-1,8.4491875E-3,1.9040477E-1,1.0005389E-1,1.8794611E-2,-1.4683702E-3,-3.0974034E-2,-3.086129E-2,-3.0905094E-2,-3.105776E-2,-3.1216234E-2,-3.1342126E-2,-3.1179348E-2,-3.1381734E-2,-5.895023E-1,3.967756E-1,-4.481959E-1,-3.1542983E-2,-1.4888519E-2,-3.0233651E-2,-2.5510991E-2,-2.4816549E-1,-2.9590817E-2,-3.1355362E-2,-1.9094107E-1,4.665526E-3,3.850252E-2,3.6299963E-2,-5.424975E-1,2.9319022E-2,-8.42195E-1,3.596414E-2,3.6458813E-2,3.2859337E-2,2.6395561E-2,7.235485E-1,-3.1427305E-2,-3.1668153E-2,-3.1957783E-2,-3.166839E-2,-3.18498E-2,-3.2226246E-2,-2.7133955E-2,-3.117954E-2,-2.4646157E-2,-1.2430662E-2,3.413665E-2,3.6753424E-2,3.830581E-2,3.7605908E-2,3.6128763E-2,2.8716158E-2],"split_indices":[13,15,1,13,18,1,1,12,15,15,15,6,6,2,13,1,1,18,20,18,16,15,18,1,1,0,2,10,0,12,1,1,10,1,1,15,15,18,16,20,15,18,0,0,22,0,15,0,0,0,0,0,0,12,13,13,2,13,0,12,6,13,1,0,0,0,0,18,18,15,18,18,27,0,27,22,0,0,0,25,15,0,0,0,0,1,0,0,0,0,0,0,0,0,0,6,0,0,12,12,0,13,13,0,20,18,20,18,22,0,18,0,18,0,20,0,27,18,18,25,18,0,15,0,0,0,0,2,0,1,0,0,12,10,0,0,22,0,0,0,0,22,0,18,25,0,18,0,0,0,0,18,0,22,0,0,0,22,0,22,25,0,22,0,0,0,0,0,0,0,0,25,25,22,0,0,0,0,18,0,0,16,0,0,0,27,0,22,0,0,0,0,22,0,0,0,0,0,0,0,0,0,0,0,0,0,0,0,0],"split_type":[0,0,0,0,0,0,0,0,0,0,0,0,0,0,0,0,0,0,0,0,0,0,0,0,0,0,0,0,0,0,0,0,0,0,0,0,0,0,0,0,0,0,0,0,0,0,0,0,0,0,0,0,0,0,0,0,0,0,0,0,0,0,0,0,0,0,0,0,0,0,0,0,0,0,0,0,0,0,0,0,0,0,0,0,0,0,0,0,0,0,0,0,0,0,0,0,0,0,0,0,0,0,0,0,0,0,0,0,0,0,0,0,0,0,0,0,0,0,0,0,0,0,0,0,0,0,0,0,0,0,0,0,0,0,0,0,0,0,0,0,0,0,0,0,0,0,0,0,0,0,0,0,0,0,0,0,0,0,0,0,0,0,0,0,0,0,0,0,0,0,0,0,0,0,0,0,0,0,0,0,0,0,0,0,0,0,0,0,0,0,0,0,0,0,0,0,0,0,0,0,0,0,0,0,0,0,0,0,0],"sum_hessian":[2.0767478E3,1.6189524E3,4.5779535E2,1.1375824E3,4.8137006E2,1.1622102E2,3.4157434E2,4.2855185E2,7.090306E2,4.0165103E2,7.971904E1,7.247957E1,4.374146E1,1.0397253E2,2.376018E2,3.7122375E2,5.7328102E1,4.8277356E2,2.26257E2,1.0347841E2,2.981726E2,3.7891117E1,4.182792E1,2.1246916E1,5.123265E1,1.9245897E1,2.449556E1,9.222446E1,1.174807E1,7.446771E1,1.6313411E2,1.727093E2,1.9851443E2,2.3117493E1,3.421061E1,1.6926497E2,3.1350858E2,6.945788E1,1.5679912E2,7.275128E1,3.0727123E1,2.8068192E2,1.7490685E1,1.7602205E1,2.0288912E1,1.9795023E1,2.2032896E1,1.074777E1,1.0499146E1,1.9989756E1,3.1242897E1,1.42480755E1,1.0247484E1,7.072788E1,2.1496574E1,3.623695E1,3.8230762E1,1.4789206E2,1.5242041E1,6.638836E1,1.06320946E2,7.9508934E1,1.190055E2,1.2977588E1,1.0139905E1,1.4520481E1,1.9690126E1,1.0922258E2,6.0042393E1,2.6611563E2,4.739296E1,3.701151E1,3.2446373E1,1.9716671E1,1.3708246E2,5.8807896E1,1.3943388E1,1.8475773E1,1.2251352E1,1.8837216E2,9.230976E1,1.0143419E1,1.0145493E1,1.036503E1,1.1667867E1,5.547974E1,1.5248138E1,1.0749093E1,1.0747481E1,1.4496904E1,2.1740044E1,2.7734325E1,1.0496437E1,3.8975693E1,1.0891637E2,5.4416096E1,1.1972263E1,1.0340227E1,9.598072E1,6.485566E1,1.46532755E1,8.312315E1,3.588235E1,1.3275278E1,9.5947296E1,3.5477245E1,2.4565147E1,1.2103144E2,1.4508417E2,1.1495988E1,3.5896973E1,1.5075854E1,2.1935654E1,1.11269E1,2.1319475E1,1.4589635E1,1.2249282E2,3.2163097E1,2.6644796E1,9.96722E1,8.869996E1,1.652487E1,7.57849E1,1.2246628E1,4.3233112E1,1.0046831E1,4.4369263E1,7.91757E1,1.6805021E1,5.2383255E1,1.2472407E1,1.9658056E1,6.3465096E1,2.3566387E1,1.2315964E1,1.0953809E1,8.499349E1,1.5195056E1,2.0282188E1,1.0708929E1,1.3856219E1,1.0806369E2,1.296775E1,2.9331112E1,1.1575306E2,1.0385753E1,2.5511219E1,1.0711068E1,1.1224585E1,1.0905556E1,1.0413919E1,1.0964862E2,1.2844195E1,2.1479767E1,1.0683332E1,1.0142044E1,1.6502752E1,8.3424194E1,1.624801E1,6.2223896E1,2.6476065E1,1.1672299E1,6.4112595E1,5.385331E1,2.5322388E1,3.944262E1,1.2940635E1,4.6372284E1,1.709281E1,1.1282331E1,1.2284056E1,3.5274277E1,4.971921E1,9.358172E1,1.44819765E1,1.818153E1,1.1149583E1,1.0949121E1,1.0480394E2,1.0587851E1,1.4923368E1,9.8066795E1,1.1581825E1,1.07387495E1,1.0741016E1,7.320529E1,1.0218901E1,5.148455E1,1.0739347E1,1.5991942E1,1.0484122E1,1.768106E1,4.6431534E1,1.0365487E1,2.490879E1,3.6658257E1,1.3060957E1,3.781788E1,5.5763836E1,1.1866476E1,9.293746E1,7.35319E1,2.45349E1,1.4232079E1,5.8973213E1,1.02425785E1,4.124197E1,2.6989351E1,1.9442183E1],"tree_param":{"num_deleted":"0","num_feature":"28","num_nodes":"209","size_leaf_vector":"1"}},{"base_weights":[1.4608868E-3,-5.5594206E-1,1.9411335E0,-1.6432471E0,-1.5829521E-1,1.9811134E0,